<MethodSetup Method="BDT::BDT"><Variables NVar="17"><Variable VarIndex="0" Type="F" Expression="pho1_eta" Label="pho1_eta" Title="pho1_eta" Unit="" Internal="pho1_eta" Min="0.0e+00" Max="0.0e+00" /><Variable VarIndex="1" Type="F" Expression="pho2_eta" Label="pho2_eta" Title="pho2_eta" Unit="" Internal="pho2_eta" Min="0.0e+00" Max="0.0e+00" /><Variable VarIndex="2" Type="F" Expression="pho1_phi" Label="pho1_phi" Title="pho1_phi" Unit="" Internal="pho1_phi" Min="0.0e+00" Max="0.0e+00" /><Variable VarIndex="3" Type="F" Expression="pho2_phi" Label="pho2_phi" Title="pho2_phi" Unit="" Internal="pho2_phi" Min="0.0e+00" Max="0.0e+00" /><Variable VarIndex="4" Type="F" Expression="pho1_ptoM" Label="pho1_ptoM" Title="pho1_ptoM" Unit="" Internal="pho1_ptoM" Min="0.0e+00" Max="0.0e+00" /><Variable VarIndex="5" Type="F" Expression="pho2_ptoM" Label="pho2_ptoM" Title="pho2_ptoM" Unit="" Internal="pho2_ptoM" Min="0.0e+00" Max="0.0e+00" /><Variable VarIndex="6" Type="F" Expression="dipho_cosphi" Label="dipho_cosphi" Title="dipho_cosphi" Unit="" Internal="dipho_cosphi" Min="0.0e+00" Max="0.0e+00" /><Variable VarIndex="7" Type="F" Expression="dipho_deltaeta" Label="dipho_deltaeta" Title="dipho_deltaeta" Unit="" Internal="dipho_deltaeta" Min="0.0e+00" Max="0.0e+00" /><Variable VarIndex="8" Type="F" Expression="met" Label="met" Title="met" Unit="" Internal="met" Min="0.0e+00" Max="0.0e+00" /><Variable VarIndex="9" Type="F" Expression="met_phi" Label="met_phi" Title="met_phi" Unit="" Internal="met_phi" Min="0.0e+00" Max="0.0e+00" /><Variable VarIndex="10" Type="F" Expression="met_sumEt" Label="met_sumEt" Title="met_sumEt" Unit="" Internal="met_sumEt" Min="0.0e+00" Max="0.0e+00" /><Variable VarIndex="11" Type="F" Expression="dphi_pho1_met" Label="dphi_pho1_met" Title="dphi_pho1_met" Unit="" Internal="dphi_pho1_met" Min="0.0e+00" Max="0.0e+00" /><Variable VarIndex="12" Type="F" Expression="dphi_pho2_met" Label="dphi_pho2_met" Title="dphi_pho2_met" Unit="" Internal="dphi_pho2_met" Min="0.0e+00" Max="0.0e+00" /><Variable VarIndex="13" Type="F" Expression="pt_balance" Label="pt_balance" Title="pt_balance" Unit="" Internal="pt_balance" Min="0.0e+00" Max="0.0e+00" /><Variable VarIndex="14" Type="F" Expression="njet" Label="njet" Title="njet" Unit="" Internal="njet" Min="0.0e+00" Max="0.0e+00" /><Variable VarIndex="15" Type="F" Expression="max_jet_pt" Label="max_jet_pt" Title="max_jet_pt" Unit="" Internal="max_jet_pt" Min="0.0e+00" Max="0.0e+00" /><Variable VarIndex="16" Type="F" Expression="min_dphi_jet_met" Label="min_dphi_jet_met" Title="min_dphi_jet_met" Unit="" Internal="min_dphi_jet_met" Min="0.0e+00" Max="0.0e+00" /></Variables><GeneralInfo><Info name="Creator" value="xgboost2TMVA" /><Info name="AnalysisType" value="Classification" /></GeneralInfo><Options><Option name="NodePurityLimit" modified="No">5.00e-01</Option><Option name="BoostType" modified="Yes">Grad</Option></Options><Weights NTrees="711" AnalysisType="1"><BinaryTree type="DecisionTree" boostWeight="1.0e+00" itree="0"><Node pos="s" depth="0" NCoef="0" IVar="4" Cut="1.12014639" cType="1" res="0.0e+00" rms="0.0e+00" purity="0.0e+00" nType="0"><Node pos="l" depth="1" NCoef="0" IVar="4" Cut="0.803383768" cType="1" res="0.0e+00" rms="0.0e+00" purity="0.0e+00" nType="0"><Node pos="l" depth="2" NCoef="0" IVar="-1" Cut="0.0e+00" cType="1" res="-0.0147165693" rms="0.0e+00" purity="0.0e+00" nType="-99" /><Node pos="r" depth="2" NCoef="0" IVar="-1" Cut="0.0e+00" cType="1" res="0.0236254763" rms="0.0e+00" purity="0.0e+00" nType="-99" /></Node><Node pos="r" depth="1" NCoef="0" IVar="4" Cut="1.7990346" cType="1" res="0.0e+00" rms="0.0e+00" purity="0.0e+00" nType="0"><Node pos="l" depth="2" NCoef="0" IVar="-1" Cut="0.0e+00" cType="1" res="0.0699710771" rms="0.0e+00" purity="0.0e+00" nType="-99" /><Node pos="r" depth="2" NCoef="0" IVar="-1" Cut="0.0e+00" cType="1" res="0.120609522" rms="0.0e+00" purity="0.0e+00" nType="-99" /></Node></Node></BinaryTree><BinaryTree type="DecisionTree" boostWeight="1.0e+00" itree="1"><Node pos="s" depth="0" NCoef="0" IVar="4" Cut="1.18591273" cType="1" res="0.0e+00" rms="0.0e+00" purity="0.0e+00" nType="0"><Node pos="l" depth="1" NCoef="0" IVar="6" Cut="-0.0592501275" cType="1" res="0.0e+00" rms="0.0e+00" purity="0.0e+00" nType="0"><Node pos="l" depth="2" NCoef="0" IVar="-1" Cut="0.0e+00" cType="1" res="-0.0161426626" rms="0.0e+00" purity="0.0e+00" nType="-99" /><Node pos="r" depth="2" NCoef="0" IVar="-1" Cut="0.0e+00" cType="1" res="0.0320951678" rms="0.0e+00" purity="0.0e+00" nType="-99" /></Node><Node pos="r" depth="1" NCoef="0" IVar="4" Cut="1.7990346" cType="1" res="0.0e+00" rms="0.0e+00" purity="0.0e+00" nType="0"><Node pos="l" depth="2" NCoef="0" IVar="-1" Cut="0.0e+00" cType="1" res="0.0690594614" rms="0.0e+00" purity="0.0e+00" nType="-99" /><Node pos="r" depth="2" NCoef="0" IVar="-1" Cut="0.0e+00" cType="1" res="0.112018444" rms="0.0e+00" purity="0.0e+00" nType="-99" /></Node></Node></BinaryTree><BinaryTree type="DecisionTree" boostWeight="1.0e+00" itree="2"><Node pos="s" depth="0" NCoef="0" IVar="14" Cut="1" cType="1" res="0.0e+00" rms="0.0e+00" purity="0.0e+00" nType="0"><Node pos="l" depth="1" NCoef="0" IVar="2" Cut="0.861041307" cType="1" res="0.0e+00" rms="0.0e+00" purity="0.0e+00" nType="0"><Node pos="l" depth="2" NCoef="0" IVar="-1" Cut="0.0e+00" cType="1" res="0.02264365" rms="0.0e+00" purity="0.0e+00" nType="-99" /><Node pos="r" depth="2" NCoef="0" IVar="-1" Cut="0.0e+00" cType="1" res="0.0252687782" rms="0.0e+00" purity="0.0e+00" nType="-99" /></Node><Node pos="r" depth="1" NCoef="0" IVar="9" Cut="-1.25029695" cType="1" res="0.0e+00" rms="0.0e+00" purity="0.0e+00" nType="0"><Node pos="l" depth="2" NCoef="0" IVar="-1" Cut="0.0e+00" cType="1" res="0.0350398682" rms="0.0e+00" purity="0.0e+00" nType="-99" /><Node pos="r" depth="2" NCoef="0" IVar="-1" Cut="0.0e+00" cType="1" res="0.0316776112" rms="0.0e+00" purity="0.0e+00" nType="-99" /></Node></Node></BinaryTree><BinaryTree type="DecisionTree" boostWeight="1.0e+00" itree="3"><Node pos="s" depth="0" NCoef="0" IVar="6" Cut="0.223044991" cType="1" res="0.0e+00" rms="0.0e+00" purity="0.0e+00" nType="0"><Node pos="l" depth="1" NCoef="0" IVar="6" Cut="-0.369485766" cType="1" res="0.0e+00" rms="0.0e+00" purity="0.0e+00" nType="0"><Node pos="l" depth="2" NCoef="0" IVar="-1" Cut="0.0e+00" cType="1" res="-0.0206835009" rms="0.0e+00" purity="0.0e+00" nType="-99" /><Node pos="r" depth="2" NCoef="0" IVar="-1" Cut="0.0e+00" cType="1" res="0.0118484534" rms="0.0e+00" purity="0.0e+00" nType="-99" /></Node><Node pos="r" depth="1" NCoef="0" IVar="6" Cut="0.669733047" cType="1" res="0.0e+00" rms="0.0e+00" purity="0.0e+00" nType="0"><Node pos="l" depth="2" NCoef="0" IVar="-1" Cut="0.0e+00" cType="1" res="0.0468798168" rms="0.0e+00" purity="0.0e+00" nType="-99" /><Node pos="r" depth="2" NCoef="0" IVar="-1" Cut="0.0e+00" cType="1" res="0.0815123394" rms="0.0e+00" purity="0.0e+00" nType="-99" /></Node></Node></BinaryTree><BinaryTree type="DecisionTree" boostWeight="1.0e+00" itree="4"><Node pos="s" depth="0" NCoef="0" IVar="12" Cut="2.21624851" cType="1" res="0.0e+00" rms="0.0e+00" purity="0.0e+00" nType="0"><Node pos="l" depth="1" NCoef="0" IVar="12" Cut="1.44712174" cType="1" res="0.0e+00" rms="0.0e+00" purity="0.0e+00" nType="0"><Node pos="l" depth="2" NCoef="0" IVar="-1" Cut="0.0e+00" cType="1" res="-0.0153479641" rms="0.0e+00" purity="0.0e+00" nType="-99" /><Node pos="r" depth="2" NCoef="0" IVar="-1" Cut="0.0e+00" cType="1" res="0.00940339081" rms="0.0e+00" purity="0.0e+00" nType="-99" /></Node><Node pos="r" depth="1" NCoef="0" IVar="12" Cut="2.62594581" cType="1" res="0.0e+00" rms="0.0e+00" purity="0.0e+00" nType="0"><Node pos="l" depth="2" NCoef="0" IVar="-1" Cut="0.0e+00" cType="1" res="0.0384165384" rms="0.0e+00" purity="0.0e+00" nType="-99" /><Node pos="r" depth="2" NCoef="0" IVar="-1" Cut="0.0e+00" cType="1" res="0.0659519508" rms="0.0e+00" purity="0.0e+00" nType="-99" /></Node></Node></BinaryTree><BinaryTree type="DecisionTree" boostWeight="1.0e+00" itree="5"><Node pos="s" depth="0" NCoef="0" IVar="5" Cut="0.619276702" cType="1" res="0.0e+00" rms="0.0e+00" purity="0.0e+00" nType="0"><Node pos="l" depth="1" NCoef="0" IVar="15" Cut="129.970886" cType="1" res="0.0e+00" rms="0.0e+00" purity="0.0e+00" nType="0"><Node pos="l" depth="2" NCoef="0" IVar="-1" Cut="0.0e+00" cType="1" res="0.0017171707" rms="0.0e+00" purity="0.0e+00" nType="-99" /><Node pos="r" depth="2" NCoef="0" IVar="-1" Cut="0.0e+00" cType="1" res="0.0751103461" rms="0.0e+00" purity="0.0e+00" nType="-99" /></Node><Node pos="r" depth="1" NCoef="0" IVar="5" Cut="0.967585087" cType="1" res="0.0e+00" rms="0.0e+00" purity="0.0e+00" nType="0"><Node pos="l" depth="2" NCoef="0" IVar="-1" Cut="0.0e+00" cType="1" res="0.0594150871" rms="0.0e+00" purity="0.0e+00" nType="-99" /><Node pos="r" depth="2" NCoef="0" IVar="-1" Cut="0.0e+00" cType="1" res="0.0974442586" rms="0.0e+00" purity="0.0e+00" nType="-99" /></Node></Node></BinaryTree><BinaryTree type="DecisionTree" boostWeight="1.0e+00" itree="6"><Node pos="s" depth="0" NCoef="0" IVar="4" Cut="1.06421506" cType="1" res="0.0e+00" rms="0.0e+00" purity="0.0e+00" nType="0"><Node pos="l" depth="1" NCoef="0" IVar="4" Cut="0.728159964" cType="1" res="0.0e+00" rms="0.0e+00" purity="0.0e+00" nType="0"><Node pos="l" depth="2" NCoef="0" IVar="-1" Cut="0.0e+00" cType="1" res="-0.0210123248" rms="0.0e+00" purity="0.0e+00" nType="-99" /><Node pos="r" depth="2" NCoef="0" IVar="-1" Cut="0.0e+00" cType="1" res="0.00851765368" rms="0.0e+00" purity="0.0e+00" nType="-99" /></Node><Node pos="r" depth="1" NCoef="0" IVar="4" Cut="1.56751978" cType="1" res="0.0e+00" rms="0.0e+00" purity="0.0e+00" nType="0"><Node pos="l" depth="2" NCoef="0" IVar="-1" Cut="0.0e+00" cType="1" res="0.0432123393" rms="0.0e+00" purity="0.0e+00" nType="-99" /><Node pos="r" depth="2" NCoef="0" IVar="-1" Cut="0.0e+00" cType="1" res="0.0869455785" rms="0.0e+00" purity="0.0e+00" nType="-99" /></Node></Node></BinaryTree><BinaryTree type="DecisionTree" boostWeight="1.0e+00" itree="7"><Node pos="s" depth="0" NCoef="0" IVar="6" Cut="0.223044991" cType="1" res="0.0e+00" rms="0.0e+00" purity="0.0e+00" nType="0"><Node pos="l" depth="1" NCoef="0" IVar="6" Cut="-0.400592417" cType="1" res="0.0e+00" rms="0.0e+00" purity="0.0e+00" nType="0"><Node pos="l" depth="2" NCoef="0" IVar="-1" Cut="0.0e+00" cType="1" res="-0.0189803876" rms="0.0e+00" purity="0.0e+00" nType="-99" /><Node pos="r" depth="2" NCoef="0" IVar="-1" Cut="0.0e+00" cType="1" res="0.00764691271" rms="0.0e+00" purity="0.0e+00" nType="-99" /></Node><Node pos="r" depth="1" NCoef="0" IVar="6" Cut="0.710608244" cType="1" res="0.0e+00" rms="0.0e+00" purity="0.0e+00" nType="0"><Node pos="l" depth="2" NCoef="0" IVar="-1" Cut="0.0e+00" cType="1" res="0.0384057909" rms="0.0e+00" purity="0.0e+00" nType="-99" /><Node pos="r" depth="2" NCoef="0" IVar="-1" Cut="0.0e+00" cType="1" res="0.0667267144" rms="0.0e+00" purity="0.0e+00" nType="-99" /></Node></Node></BinaryTree><BinaryTree type="DecisionTree" boostWeight="1.0e+00" itree="8"><Node pos="s" depth="0" NCoef="0" IVar="4" Cut="1.23170018" cType="1" res="0.0e+00" rms="0.0e+00" purity="0.0e+00" nType="0"><Node pos="l" depth="1" NCoef="0" IVar="4" Cut="0.858017325" cType="1" res="0.0e+00" rms="0.0e+00" purity="0.0e+00" nType="0"><Node pos="l" depth="2" NCoef="0" IVar="-1" Cut="0.0e+00" cType="1" res="-0.0138715459" rms="0.0e+00" purity="0.0e+00" nType="-99" /><Node pos="r" depth="2" NCoef="0" IVar="-1" Cut="0.0e+00" cType="1" res="0.019785855" rms="0.0e+00" purity="0.0e+00" nType="-99" /></Node><Node pos="r" depth="1" NCoef="0" IVar="4" Cut="2.22068143" cType="1" res="0.0e+00" rms="0.0e+00" purity="0.0e+00" nType="0"><Node pos="l" depth="2" NCoef="0" IVar="-1" Cut="0.0e+00" cType="1" res="0.0543050691" rms="0.0e+00" purity="0.0e+00" nType="-99" /><Node pos="r" depth="2" NCoef="0" IVar="-1" Cut="0.0e+00" cType="1" res="0.0917216986" rms="0.0e+00" purity="0.0e+00" nType="-99" /></Node></Node></BinaryTree><BinaryTree type="DecisionTree" boostWeight="1.0e+00" itree="9"><Node pos="s" depth="0" NCoef="0" IVar="6" Cut="0.0864532217" cType="1" res="0.0e+00" rms="0.0e+00" purity="0.0e+00" nType="0"><Node pos="l" depth="1" NCoef="0" IVar="6" Cut="-0.522382796" cType="1" res="0.0e+00" rms="0.0e+00" purity="0.0e+00" nType="0"><Node pos="l" depth="2" NCoef="0" IVar="-1" Cut="0.0e+00" cType="1" res="-0.0188991036" rms="0.0e+00" purity="0.0e+00" nType="-99" /><Node pos="r" depth="2" NCoef="0" IVar="-1" Cut="0.0e+00" cType="1" res="0.00108204421" rms="0.0e+00" purity="0.0e+00" nType="-99" /></Node><Node pos="r" depth="1" NCoef="0" IVar="6" Cut="0.600066125" cType="1" res="0.0e+00" rms="0.0e+00" purity="0.0e+00" nType="0"><Node pos="l" depth="2" NCoef="0" IVar="-1" Cut="0.0e+00" cType="1" res="0.0272055697" rms="0.0e+00" purity="0.0e+00" nType="-99" /><Node pos="r" depth="2" NCoef="0" IVar="-1" Cut="0.0e+00" cType="1" res="0.0573855639" rms="0.0e+00" purity="0.0e+00" nType="-99" /></Node></Node></BinaryTree><BinaryTree type="DecisionTree" boostWeight="1.0e+00" itree="10"><Node pos="s" depth="0" NCoef="0" IVar="7" Cut="0.929523647" cType="1" res="0.0e+00" rms="0.0e+00" purity="0.0e+00" nType="0"><Node pos="l" depth="1" NCoef="0" IVar="7" Cut="0.579144835" cType="1" res="0.0e+00" rms="0.0e+00" purity="0.0e+00" nType="0"><Node pos="l" depth="2" NCoef="0" IVar="-1" Cut="0.0e+00" cType="1" res="0.0259430539" rms="0.0e+00" purity="0.0e+00" nType="-99" /><Node pos="r" depth="2" NCoef="0" IVar="-1" Cut="0.0e+00" cType="1" res="0.019183429" rms="0.0e+00" purity="0.0e+00" nType="-99" /></Node><Node pos="r" depth="1" NCoef="0" IVar="7" Cut="1.58858478" cType="1" res="0.0e+00" rms="0.0e+00" purity="0.0e+00" nType="0"><Node pos="l" depth="2" NCoef="0" IVar="-1" Cut="0.0e+00" cType="1" res="0.00420921063" rms="0.0e+00" purity="0.0e+00" nType="-99" /><Node pos="r" depth="2" NCoef="0" IVar="-1" Cut="0.0e+00" cType="1" res="-0.0136402575" rms="0.0e+00" purity="0.0e+00" nType="-99" /></Node></Node></BinaryTree><BinaryTree type="DecisionTree" boostWeight="1.0e+00" itree="11"><Node pos="s" depth="0" NCoef="0" IVar="6" Cut="0.223044991" cType="1" res="0.0e+00" rms="0.0e+00" purity="0.0e+00" nType="0"><Node pos="l" depth="1" NCoef="0" IVar="8" Cut="113.245369" cType="1" res="0.0e+00" rms="0.0e+00" purity="0.0e+00" nType="0"><Node pos="l" depth="2" NCoef="0" IVar="-1" Cut="0.0e+00" cType="1" res="-0.0152924061" rms="0.0e+00" purity="0.0e+00" nType="-99" /><Node pos="r" depth="2" NCoef="0" IVar="-1" Cut="0.0e+00" cType="1" res="0.0193160512" rms="0.0e+00" purity="0.0e+00" nType="-99" /></Node><Node pos="r" depth="1" NCoef="0" IVar="8" Cut="254.988266" cType="1" res="0.0e+00" rms="0.0e+00" purity="0.0e+00" nType="0"><Node pos="l" depth="2" NCoef="0" IVar="-1" Cut="0.0e+00" cType="1" res="0.0354613066" rms="0.0e+00" purity="0.0e+00" nType="-99" /><Node pos="r" depth="2" NCoef="0" IVar="-1" Cut="0.0e+00" cType="1" res="0.074969314" rms="0.0e+00" purity="0.0e+00" nType="-99" /></Node></Node></BinaryTree><BinaryTree type="DecisionTree" boostWeight="1.0e+00" itree="12"><Node pos="s" depth="0" NCoef="0" IVar="13" Cut="0.672720134" cType="1" res="0.0e+00" rms="0.0e+00" purity="0.0e+00" nType="0"><Node pos="l" depth="1" NCoef="0" IVar="13" Cut="-0.315052897" cType="1" res="0.0e+00" rms="0.0e+00" purity="0.0e+00" nType="0"><Node pos="l" depth="2" NCoef="0" IVar="-1" Cut="0.0e+00" cType="1" res="-0.0177413635" rms="0.0e+00" purity="0.0e+00" nType="-99" /><Node pos="r" depth="2" NCoef="0" IVar="-1" Cut="0.0e+00" cType="1" res="0.0138903121" rms="0.0e+00" purity="0.0e+00" nType="-99" /></Node><Node pos="r" depth="1" NCoef="0" IVar="13" Cut="0.822953463" cType="1" res="0.0e+00" rms="0.0e+00" purity="0.0e+00" nType="0"><Node pos="l" depth="2" NCoef="0" IVar="-1" Cut="0.0e+00" cType="1" res="0.0516097844" rms="0.0e+00" purity="0.0e+00" nType="-99" /><Node pos="r" depth="2" NCoef="0" IVar="-1" Cut="0.0e+00" cType="1" res="0.0832219869" rms="0.0e+00" purity="0.0e+00" nType="-99" /></Node></Node></BinaryTree><BinaryTree type="DecisionTree" boostWeight="1.0e+00" itree="13"><Node pos="s" depth="0" NCoef="0" IVar="0" Cut="-1.87897789" cType="1" res="0.0e+00" rms="0.0e+00" purity="0.0e+00" nType="0"><Node pos="l" depth="1" NCoef="0" IVar="14" Cut="2" cType="1" res="0.0e+00" rms="0.0e+00" purity="0.0e+00" nType="0"><Node pos="l" depth="2" NCoef="0" IVar="-1" Cut="0.0e+00" cType="1" res="-0.0056195464" rms="0.0e+00" purity="0.0e+00" nType="-99" /><Node pos="r" depth="2" NCoef="0" IVar="-1" Cut="0.0e+00" cType="1" res="0.00326798786" rms="0.0e+00" purity="0.0e+00" nType="-99" /></Node><Node pos="r" depth="1" NCoef="0" IVar="0" Cut="1.43628657" cType="1" res="0.0e+00" rms="0.0e+00" purity="0.0e+00" nType="0"><Node pos="l" depth="2" NCoef="0" IVar="-1" Cut="0.0e+00" cType="1" res="0.0159728844" rms="0.0e+00" purity="0.0e+00" nType="-99" /><Node pos="r" depth="2" NCoef="0" IVar="-1" Cut="0.0e+00" cType="1" res="0.000855388294" rms="0.0e+00" purity="0.0e+00" nType="-99" /></Node></Node></BinaryTree><BinaryTree type="DecisionTree" boostWeight="1.0e+00" itree="14"><Node pos="s" depth="0" NCoef="0" IVar="8" Cut="166.446472" cType="1" res="0.0e+00" rms="0.0e+00" purity="0.0e+00" nType="0"><Node pos="l" depth="1" NCoef="0" IVar="12" Cut="2.1569078" cType="1" res="0.0e+00" rms="0.0e+00" purity="0.0e+00" nType="0"><Node pos="l" depth="2" NCoef="0" IVar="-1" Cut="0.0e+00" cType="1" res="-0.00893607363" rms="0.0e+00" purity="0.0e+00" nType="-99" /><Node pos="r" depth="2" NCoef="0" IVar="-1" Cut="0.0e+00" cType="1" res="0.0164435655" rms="0.0e+00" purity="0.0e+00" nType="-99" /></Node><Node pos="r" depth="1" NCoef="0" IVar="8" Cut="254.988266" cType="1" res="0.0e+00" rms="0.0e+00" purity="0.0e+00" nType="0"><Node pos="l" depth="2" NCoef="0" IVar="-1" Cut="0.0e+00" cType="1" res="0.0376762189" rms="0.0e+00" purity="0.0e+00" nType="-99" /><Node pos="r" depth="2" NCoef="0" IVar="-1" Cut="0.0e+00" cType="1" res="0.0697685704" rms="0.0e+00" purity="0.0e+00" nType="-99" /></Node></Node></BinaryTree><BinaryTree type="DecisionTree" boostWeight="1.0e+00" itree="15"><Node pos="s" depth="0" NCoef="0" IVar="11" Cut="2.77946734" cType="1" res="0.0e+00" rms="0.0e+00" purity="0.0e+00" nType="0"><Node pos="l" depth="1" NCoef="0" IVar="11" Cut="2.29814982" cType="1" res="0.0e+00" rms="0.0e+00" purity="0.0e+00" nType="0"><Node pos="l" depth="2" NCoef="0" IVar="-1" Cut="0.0e+00" cType="1" res="-0.0141463764" rms="0.0e+00" purity="0.0e+00" nType="-99" /><Node pos="r" depth="2" NCoef="0" IVar="-1" Cut="0.0e+00" cType="1" res="0.00449461397" rms="0.0e+00" purity="0.0e+00" nType="-99" /></Node><Node pos="r" depth="1" NCoef="0" IVar="16" Cut="0.27412194" cType="1" res="0.0e+00" rms="0.0e+00" purity="0.0e+00" nType="0"><Node pos="l" depth="2" NCoef="0" IVar="-1" Cut="0.0e+00" cType="1" res="0.0401718467" rms="0.0e+00" purity="0.0e+00" nType="-99" /><Node pos="r" depth="2" NCoef="0" IVar="-1" Cut="0.0e+00" cType="1" res="0.0186445136" rms="0.0e+00" purity="0.0e+00" nType="-99" /></Node></Node></BinaryTree><BinaryTree type="DecisionTree" boostWeight="1.0e+00" itree="16"><Node pos="s" depth="0" NCoef="0" IVar="8" Cut="170.382126" cType="1" res="0.0e+00" rms="0.0e+00" purity="0.0e+00" nType="0"><Node pos="l" depth="1" NCoef="0" IVar="8" Cut="113.245369" cType="1" res="0.0e+00" rms="0.0e+00" purity="0.0e+00" nType="0"><Node pos="l" depth="2" NCoef="0" IVar="-1" Cut="0.0e+00" cType="1" res="-0.00368153281" rms="0.0e+00" purity="0.0e+00" nType="-99" /><Node pos="r" depth="2" NCoef="0" IVar="-1" Cut="0.0e+00" cType="1" res="0.0153617663" rms="0.0e+00" purity="0.0e+00" nType="-99" /></Node><Node pos="r" depth="1" NCoef="0" IVar="8" Cut="289.56134" cType="1" res="0.0e+00" rms="0.0e+00" purity="0.0e+00" nType="0"><Node pos="l" depth="2" NCoef="0" IVar="-1" Cut="0.0e+00" cType="1" res="0.0376020037" rms="0.0e+00" purity="0.0e+00" nType="-99" /><Node pos="r" depth="2" NCoef="0" IVar="-1" Cut="0.0e+00" cType="1" res="0.0696273074" rms="0.0e+00" purity="0.0e+00" nType="-99" /></Node></Node></BinaryTree><BinaryTree type="DecisionTree" boostWeight="1.0e+00" itree="17"><Node pos="s" depth="0" NCoef="0" IVar="4" Cut="1.25118709" cType="1" res="0.0e+00" rms="0.0e+00" purity="0.0e+00" nType="0"><Node pos="l" depth="1" NCoef="0" IVar="4" Cut="0.825967789" cType="1" res="0.0e+00" rms="0.0e+00" purity="0.0e+00" nType="0"><Node pos="l" depth="2" NCoef="0" IVar="-1" Cut="0.0e+00" cType="1" res="-0.0160026606" rms="0.0e+00" purity="0.0e+00" nType="-99" /><Node pos="r" depth="2" NCoef="0" IVar="-1" Cut="0.0e+00" cType="1" res="0.00966913532" rms="0.0e+00" purity="0.0e+00" nType="-99" /></Node><Node pos="r" depth="1" NCoef="0" IVar="4" Cut="2.22068143" cType="1" res="0.0e+00" rms="0.0e+00" purity="0.0e+00" nType="0"><Node pos="l" depth="2" NCoef="0" IVar="-1" Cut="0.0e+00" cType="1" res="0.0386323854" rms="0.0e+00" purity="0.0e+00" nType="-99" /><Node pos="r" depth="2" NCoef="0" IVar="-1" Cut="0.0e+00" cType="1" res="0.0751272663" rms="0.0e+00" purity="0.0e+00" nType="-99" /></Node></Node></BinaryTree><BinaryTree type="DecisionTree" boostWeight="1.0e+00" itree="18"><Node pos="s" depth="0" NCoef="0" IVar="5" Cut="0.707419455" cType="1" res="0.0e+00" rms="0.0e+00" purity="0.0e+00" nType="0"><Node pos="l" depth="1" NCoef="0" IVar="12" Cut="1.8580507" cType="1" res="0.0e+00" rms="0.0e+00" purity="0.0e+00" nType="0"><Node pos="l" depth="2" NCoef="0" IVar="-1" Cut="0.0e+00" cType="1" res="-0.0104379123" rms="0.0e+00" purity="0.0e+00" nType="-99" /><Node pos="r" depth="2" NCoef="0" IVar="-1" Cut="0.0e+00" cType="1" res="0.00938669965" rms="0.0e+00" purity="0.0e+00" nType="-99" /></Node><Node pos="r" depth="1" NCoef="0" IVar="5" Cut="1.07360578" cType="1" res="0.0e+00" rms="0.0e+00" purity="0.0e+00" nType="0"><Node pos="l" depth="2" NCoef="0" IVar="-1" Cut="0.0e+00" cType="1" res="0.0415348783" rms="0.0e+00" purity="0.0e+00" nType="-99" /><Node pos="r" depth="2" NCoef="0" IVar="-1" Cut="0.0e+00" cType="1" res="0.0691239014" rms="0.0e+00" purity="0.0e+00" nType="-99" /></Node></Node></BinaryTree><BinaryTree type="DecisionTree" boostWeight="1.0e+00" itree="19"><Node pos="s" depth="0" NCoef="0" IVar="8" Cut="188.496002" cType="1" res="0.0e+00" rms="0.0e+00" purity="0.0e+00" nType="0"><Node pos="l" depth="1" NCoef="0" IVar="13" Cut="0.612452567" cType="1" res="0.0e+00" rms="0.0e+00" purity="0.0e+00" nType="0"><Node pos="l" depth="2" NCoef="0" IVar="-1" Cut="0.0e+00" cType="1" res="-0.00713403616" rms="0.0e+00" purity="0.0e+00" nType="-99" /><Node pos="r" depth="2" NCoef="0" IVar="-1" Cut="0.0e+00" cType="1" res="0.0463737696" rms="0.0e+00" purity="0.0e+00" nType="-99" /></Node><Node pos="r" depth="1" NCoef="0" IVar="8" Cut="359.426666" cType="1" res="0.0e+00" rms="0.0e+00" purity="0.0e+00" nType="0"><Node pos="l" depth="2" NCoef="0" IVar="-1" Cut="0.0e+00" cType="1" res="0.038854342" rms="0.0e+00" purity="0.0e+00" nType="-99" /><Node pos="r" depth="2" NCoef="0" IVar="-1" Cut="0.0e+00" cType="1" res="0.0690903366" rms="0.0e+00" purity="0.0e+00" nType="-99" /></Node></Node></BinaryTree><BinaryTree type="DecisionTree" boostWeight="1.0e+00" itree="20"><Node pos="s" depth="0" NCoef="0" IVar="10" Cut="1742.02319" cType="1" res="0.0e+00" rms="0.0e+00" purity="0.0e+00" nType="0"><Node pos="l" depth="1" NCoef="0" IVar="10" Cut="1054.15417" cType="1" res="0.0e+00" rms="0.0e+00" purity="0.0e+00" nType="0"><Node pos="l" depth="2" NCoef="0" IVar="-1" Cut="0.0e+00" cType="1" res="-0.00999643654" rms="0.0e+00" purity="0.0e+00" nType="-99" /><Node pos="r" depth="2" NCoef="0" IVar="-1" Cut="0.0e+00" cType="1" res="0.00275542703" rms="0.0e+00" purity="0.0e+00" nType="-99" /></Node><Node pos="r" depth="1" NCoef="0" IVar="10" Cut="2691.27856" cType="1" res="0.0e+00" rms="0.0e+00" purity="0.0e+00" nType="0"><Node pos="l" depth="2" NCoef="0" IVar="-1" Cut="0.0e+00" cType="1" res="0.0167866554" rms="0.0e+00" purity="0.0e+00" nType="-99" /><Node pos="r" depth="2" NCoef="0" IVar="-1" Cut="0.0e+00" cType="1" res="0.0439094268" rms="0.0e+00" purity="0.0e+00" nType="-99" /></Node></Node></BinaryTree><BinaryTree type="DecisionTree" boostWeight="1.0e+00" itree="21"><Node pos="s" depth="0" NCoef="0" IVar="1" Cut="1.62011886" cType="1" res="0.0e+00" rms="0.0e+00" purity="0.0e+00" nType="0"><Node pos="l" depth="1" NCoef="0" IVar="1" Cut="-1.78549409" cType="1" res="0.0e+00" rms="0.0e+00" purity="0.0e+00" nType="0"><Node pos="l" depth="2" NCoef="0" IVar="-1" Cut="0.0e+00" cType="1" res="-0.00188809261" rms="0.0e+00" purity="0.0e+00" nType="-99" /><Node pos="r" depth="2" NCoef="0" IVar="-1" Cut="0.0e+00" cType="1" res="0.00945645291" rms="0.0e+00" purity="0.0e+00" nType="-99" /></Node><Node pos="r" depth="1" NCoef="0" IVar="9" Cut="1.920102" cType="1" res="0.0e+00" rms="0.0e+00" purity="0.0e+00" nType="0"><Node pos="l" depth="2" NCoef="0" IVar="-1" Cut="0.0e+00" cType="1" res="-0.00425504381" rms="0.0e+00" purity="0.0e+00" nType="-99" /><Node pos="r" depth="2" NCoef="0" IVar="-1" Cut="0.0e+00" cType="1" res="0.00281649758" rms="0.0e+00" purity="0.0e+00" nType="-99" /></Node></Node></BinaryTree><BinaryTree type="DecisionTree" boostWeight="1.0e+00" itree="22"><Node pos="s" depth="0" NCoef="0" IVar="8" Cut="158.956238" cType="1" res="0.0e+00" rms="0.0e+00" purity="0.0e+00" nType="0"><Node pos="l" depth="1" NCoef="0" IVar="13" Cut="0.621291816" cType="1" res="0.0e+00" rms="0.0e+00" purity="0.0e+00" nType="0"><Node pos="l" depth="2" NCoef="0" IVar="-1" Cut="0.0e+00" cType="1" res="-0.00955590513" rms="0.0e+00" purity="0.0e+00" nType="-99" /><Node pos="r" depth="2" NCoef="0" IVar="-1" Cut="0.0e+00" cType="1" res="0.0426316224" rms="0.0e+00" purity="0.0e+00" nType="-99" /></Node><Node pos="r" depth="1" NCoef="0" IVar="8" Cut="289.56134" cType="1" res="0.0e+00" rms="0.0e+00" purity="0.0e+00" nType="0"><Node pos="l" depth="2" NCoef="0" IVar="-1" Cut="0.0e+00" cType="1" res="0.028207982" rms="0.0e+00" purity="0.0e+00" nType="-99" /><Node pos="r" depth="2" NCoef="0" IVar="-1" Cut="0.0e+00" cType="1" res="0.0587084144" rms="0.0e+00" purity="0.0e+00" nType="-99" /></Node></Node></BinaryTree><BinaryTree type="DecisionTree" boostWeight="1.0e+00" itree="23"><Node pos="s" depth="0" NCoef="0" IVar="6" Cut="0.0864532217" cType="1" res="0.0e+00" rms="0.0e+00" purity="0.0e+00" nType="0"><Node pos="l" depth="1" NCoef="0" IVar="6" Cut="-0.532196343" cType="1" res="0.0e+00" rms="0.0e+00" purity="0.0e+00" nType="0"><Node pos="l" depth="2" NCoef="0" IVar="-1" Cut="0.0e+00" cType="1" res="-0.0171915684" rms="0.0e+00" purity="0.0e+00" nType="-99" /><Node pos="r" depth="2" NCoef="0" IVar="-1" Cut="0.0e+00" cType="1" res="-0.00245528971" rms="0.0e+00" purity="0.0e+00" nType="-99" /></Node><Node pos="r" depth="1" NCoef="0" IVar="5" Cut="0.88620609" cType="1" res="0.0e+00" rms="0.0e+00" purity="0.0e+00" nType="0"><Node pos="l" depth="2" NCoef="0" IVar="-1" Cut="0.0e+00" cType="1" res="0.0179842897" rms="0.0e+00" purity="0.0e+00" nType="-99" /><Node pos="r" depth="2" NCoef="0" IVar="-1" Cut="0.0e+00" cType="1" res="0.0546580777" rms="0.0e+00" purity="0.0e+00" nType="-99" /></Node></Node></BinaryTree><BinaryTree type="DecisionTree" boostWeight="1.0e+00" itree="24"><Node pos="s" depth="0" NCoef="0" IVar="13" Cut="0.722921371" cType="1" res="0.0e+00" rms="0.0e+00" purity="0.0e+00" nType="0"><Node pos="l" depth="1" NCoef="0" IVar="12" Cut="2.34016514" cType="1" res="0.0e+00" rms="0.0e+00" purity="0.0e+00" nType="0"><Node pos="l" depth="2" NCoef="0" IVar="-1" Cut="0.0e+00" cType="1" res="-0.00545085175" rms="0.0e+00" purity="0.0e+00" nType="-99" /><Node pos="r" depth="2" NCoef="0" IVar="-1" Cut="0.0e+00" cType="1" res="0.016191408" rms="0.0e+00" purity="0.0e+00" nType="-99" /></Node><Node pos="r" depth="1" NCoef="0" IVar="13" Cut="0.858282089" cType="1" res="0.0e+00" rms="0.0e+00" purity="0.0e+00" nType="0"><Node pos="l" depth="2" NCoef="0" IVar="-1" Cut="0.0e+00" cType="1" res="0.0427955203" rms="0.0e+00" purity="0.0e+00" nType="-99" /><Node pos="r" depth="2" NCoef="0" IVar="-1" Cut="0.0e+00" cType="1" res="0.0738911778" rms="0.0e+00" purity="0.0e+00" nType="-99" /></Node></Node></BinaryTree><BinaryTree type="DecisionTree" boostWeight="1.0e+00" itree="25"><Node pos="s" depth="0" NCoef="0" IVar="6" Cut="0.39930886" cType="1" res="0.0e+00" rms="0.0e+00" purity="0.0e+00" nType="0"><Node pos="l" depth="1" NCoef="0" IVar="6" Cut="-0.315285236" cType="1" res="0.0e+00" rms="0.0e+00" purity="0.0e+00" nType="0"><Node pos="l" depth="2" NCoef="0" IVar="-1" Cut="0.0e+00" cType="1" res="-0.0136010693" rms="0.0e+00" purity="0.0e+00" nType="-99" /><Node pos="r" depth="2" NCoef="0" IVar="-1" Cut="0.0e+00" cType="1" res="0.00411899993" rms="0.0e+00" purity="0.0e+00" nType="-99" /></Node><Node pos="r" depth="1" NCoef="0" IVar="10" Cut="1742.02319" cType="1" res="0.0e+00" rms="0.0e+00" purity="0.0e+00" nType="0"><Node pos="l" depth="2" NCoef="0" IVar="-1" Cut="0.0e+00" cType="1" res="0.0163782965" rms="0.0e+00" purity="0.0e+00" nType="-99" /><Node pos="r" depth="2" NCoef="0" IVar="-1" Cut="0.0e+00" cType="1" res="0.0394871458" rms="0.0e+00" purity="0.0e+00" nType="-99" /></Node></Node></BinaryTree><BinaryTree type="DecisionTree" boostWeight="1.0e+00" itree="26"><Node pos="s" depth="0" NCoef="0" IVar="5" Cut="0.715629756" cType="1" res="0.0e+00" rms="0.0e+00" purity="0.0e+00" nType="0"><Node pos="l" depth="1" NCoef="0" IVar="5" Cut="0.510346353" cType="1" res="0.0e+00" rms="0.0e+00" purity="0.0e+00" nType="0"><Node pos="l" depth="2" NCoef="0" IVar="-1" Cut="0.0e+00" cType="1" res="-0.00433077058" rms="0.0e+00" purity="0.0e+00" nType="-99" /><Node pos="r" depth="2" NCoef="0" IVar="-1" Cut="0.0e+00" cType="1" res="0.0108660385" rms="0.0e+00" purity="0.0e+00" nType="-99" /></Node><Node pos="r" depth="1" NCoef="0" IVar="5" Cut="1.33311331" cType="1" res="0.0e+00" rms="0.0e+00" purity="0.0e+00" nType="0"><Node pos="l" depth="2" NCoef="0" IVar="-1" Cut="0.0e+00" cType="1" res="0.0330073424" rms="0.0e+00" purity="0.0e+00" nType="-99" /><Node pos="r" depth="2" NCoef="0" IVar="-1" Cut="0.0e+00" cType="1" res="0.0628208444" rms="0.0e+00" purity="0.0e+00" nType="-99" /></Node></Node></BinaryTree><BinaryTree type="DecisionTree" boostWeight="1.0e+00" itree="27"><Node pos="s" depth="0" NCoef="0" IVar="4" Cut="1.00218832" cType="1" res="0.0e+00" rms="0.0e+00" purity="0.0e+00" nType="0"><Node pos="l" depth="1" NCoef="0" IVar="4" Cut="0.689211905" cType="1" res="0.0e+00" rms="0.0e+00" purity="0.0e+00" nType="0"><Node pos="l" depth="2" NCoef="0" IVar="-1" Cut="0.0e+00" cType="1" res="-0.0188229997" rms="0.0e+00" purity="0.0e+00" nType="-99" /><Node pos="r" depth="2" NCoef="0" IVar="-1" Cut="0.0e+00" cType="1" res="-0.00243050046" rms="0.0e+00" purity="0.0e+00" nType="-99" /></Node><Node pos="r" depth="1" NCoef="0" IVar="4" Cut="2.22068143" cType="1" res="0.0e+00" rms="0.0e+00" purity="0.0e+00" nType="0"><Node pos="l" depth="2" NCoef="0" IVar="-1" Cut="0.0e+00" cType="1" res="0.0199282821" rms="0.0e+00" purity="0.0e+00" nType="-99" /><Node pos="r" depth="2" NCoef="0" IVar="-1" Cut="0.0e+00" cType="1" res="0.0606196783" rms="0.0e+00" purity="0.0e+00" nType="-99" /></Node></Node></BinaryTree><BinaryTree type="DecisionTree" boostWeight="1.0e+00" itree="28"><Node pos="s" depth="0" NCoef="0" IVar="7" Cut="0.929523647" cType="1" res="0.0e+00" rms="0.0e+00" purity="0.0e+00" nType="0"><Node pos="l" depth="1" NCoef="0" IVar="16" Cut="0.309612989" cType="1" res="0.0e+00" rms="0.0e+00" purity="0.0e+00" nType="0"><Node pos="l" depth="2" NCoef="0" IVar="-1" Cut="0.0e+00" cType="1" res="0.020533165" rms="0.0e+00" purity="0.0e+00" nType="-99" /><Node pos="r" depth="2" NCoef="0" IVar="-1" Cut="0.0e+00" cType="1" res="0.00659861788" rms="0.0e+00" purity="0.0e+00" nType="-99" /></Node><Node pos="r" depth="1" NCoef="0" IVar="7" Cut="1.76674485" cType="1" res="0.0e+00" rms="0.0e+00" purity="0.0e+00" nType="0"><Node pos="l" depth="2" NCoef="0" IVar="-1" Cut="0.0e+00" cType="1" res="-0.00360425888" rms="0.0e+00" purity="0.0e+00" nType="-99" /><Node pos="r" depth="2" NCoef="0" IVar="-1" Cut="0.0e+00" cType="1" res="-0.0195160005" rms="0.0e+00" purity="0.0e+00" nType="-99" /></Node></Node></BinaryTree><BinaryTree type="DecisionTree" boostWeight="1.0e+00" itree="29"><Node pos="s" depth="0" NCoef="0" IVar="4" Cut="1.50052357" cType="1" res="0.0e+00" rms="0.0e+00" purity="0.0e+00" nType="0"><Node pos="l" depth="1" NCoef="0" IVar="4" Cut="0.88717401" cType="1" res="0.0e+00" rms="0.0e+00" purity="0.0e+00" nType="0"><Node pos="l" depth="2" NCoef="0" IVar="-1" Cut="0.0e+00" cType="1" res="-0.0116966534" rms="0.0e+00" purity="0.0e+00" nType="-99" /><Node pos="r" depth="2" NCoef="0" IVar="-1" Cut="0.0e+00" cType="1" res="0.00944735575" rms="0.0e+00" purity="0.0e+00" nType="-99" /></Node><Node pos="r" depth="1" NCoef="0" IVar="4" Cut="3.24439621" cType="1" res="0.0e+00" rms="0.0e+00" purity="0.0e+00" nType="0"><Node pos="l" depth="2" NCoef="0" IVar="-1" Cut="0.0e+00" cType="1" res="0.0355417952" rms="0.0e+00" purity="0.0e+00" nType="-99" /><Node pos="r" depth="2" NCoef="0" IVar="-1" Cut="0.0e+00" cType="1" res="0.0709499195" rms="0.0e+00" purity="0.0e+00" nType="-99" /></Node></Node></BinaryTree><BinaryTree type="DecisionTree" boostWeight="1.0e+00" itree="30"><Node pos="s" depth="0" NCoef="0" IVar="4" Cut="1.50052357" cType="1" res="0.0e+00" rms="0.0e+00" purity="0.0e+00" nType="0"><Node pos="l" depth="1" NCoef="0" IVar="4" Cut="0.728159964" cType="1" res="0.0e+00" rms="0.0e+00" purity="0.0e+00" nType="0"><Node pos="l" depth="2" NCoef="0" IVar="-1" Cut="0.0e+00" cType="1" res="-0.0151663683" rms="0.0e+00" purity="0.0e+00" nType="-99" /><Node pos="r" depth="2" NCoef="0" IVar="-1" Cut="0.0e+00" cType="1" res="0.00431553693" rms="0.0e+00" purity="0.0e+00" nType="-99" /></Node><Node pos="r" depth="1" NCoef="0" IVar="4" Cut="2.68414664" cType="1" res="0.0e+00" rms="0.0e+00" purity="0.0e+00" nType="0"><Node pos="l" depth="2" NCoef="0" IVar="-1" Cut="0.0e+00" cType="1" res="0.0309921578" rms="0.0e+00" purity="0.0e+00" nType="-99" /><Node pos="r" depth="2" NCoef="0" IVar="-1" Cut="0.0e+00" cType="1" res="0.0619839616" rms="0.0e+00" purity="0.0e+00" nType="-99" /></Node></Node></BinaryTree><BinaryTree type="DecisionTree" boostWeight="1.0e+00" itree="31"><Node pos="s" depth="0" NCoef="0" IVar="6" Cut="-0.0471535474" cType="1" res="0.0e+00" rms="0.0e+00" purity="0.0e+00" nType="0"><Node pos="l" depth="1" NCoef="0" IVar="6" Cut="-0.786398888" cType="1" res="0.0e+00" rms="0.0e+00" purity="0.0e+00" nType="0"><Node pos="l" depth="2" NCoef="0" IVar="-1" Cut="0.0e+00" cType="1" res="-0.0160149913" rms="0.0e+00" purity="0.0e+00" nType="-99" /><Node pos="r" depth="2" NCoef="0" IVar="-1" Cut="0.0e+00" cType="1" res="-0.00499258609" rms="0.0e+00" purity="0.0e+00" nType="-99" /></Node><Node pos="r" depth="1" NCoef="0" IVar="6" Cut="0.748567045" cType="1" res="0.0e+00" rms="0.0e+00" purity="0.0e+00" nType="0"><Node pos="l" depth="2" NCoef="0" IVar="-1" Cut="0.0e+00" cType="1" res="0.00905801356" rms="0.0e+00" purity="0.0e+00" nType="-99" /><Node pos="r" depth="2" NCoef="0" IVar="-1" Cut="0.0e+00" cType="1" res="0.0272328388" rms="0.0e+00" purity="0.0e+00" nType="-99" /></Node></Node></BinaryTree><BinaryTree type="DecisionTree" boostWeight="1.0e+00" itree="32"><Node pos="s" depth="0" NCoef="0" IVar="6" Cut="0.543626606" cType="1" res="0.0e+00" rms="0.0e+00" purity="0.0e+00" nType="0"><Node pos="l" depth="1" NCoef="0" IVar="6" Cut="-0.369485766" cType="1" res="0.0e+00" rms="0.0e+00" purity="0.0e+00" nType="0"><Node pos="l" depth="2" NCoef="0" IVar="-1" Cut="0.0e+00" cType="1" res="-0.0107326619" rms="0.0e+00" purity="0.0e+00" nType="-99" /><Node pos="r" depth="2" NCoef="0" IVar="-1" Cut="0.0e+00" cType="1" res="0.00324274297" rms="0.0e+00" purity="0.0e+00" nType="-99" /></Node><Node pos="r" depth="1" NCoef="0" IVar="5" Cut="0.967585087" cType="1" res="0.0e+00" rms="0.0e+00" purity="0.0e+00" nType="0"><Node pos="l" depth="2" NCoef="0" IVar="-1" Cut="0.0e+00" cType="1" res="0.0150008975" rms="0.0e+00" purity="0.0e+00" nType="-99" /><Node pos="r" depth="2" NCoef="0" IVar="-1" Cut="0.0e+00" cType="1" res="0.0438335612" rms="0.0e+00" purity="0.0e+00" nType="-99" /></Node></Node></BinaryTree><BinaryTree type="DecisionTree" boostWeight="1.0e+00" itree="33"><Node pos="s" depth="0" NCoef="0" IVar="15" Cut="197.698471" cType="1" res="0.0e+00" rms="0.0e+00" purity="0.0e+00" nType="0"><Node pos="l" depth="1" NCoef="0" IVar="16" Cut="1.8017205" cType="1" res="0.0e+00" rms="0.0e+00" purity="0.0e+00" nType="0"><Node pos="l" depth="2" NCoef="0" IVar="-1" Cut="0.0e+00" cType="1" res="-0.00573091256" rms="0.0e+00" purity="0.0e+00" nType="-99" /><Node pos="r" depth="2" NCoef="0" IVar="-1" Cut="0.0e+00" cType="1" res="0.00504098739" rms="0.0e+00" purity="0.0e+00" nType="-99" /></Node><Node pos="r" depth="1" NCoef="0" IVar="15" Cut="469.723297" cType="1" res="0.0e+00" rms="0.0e+00" purity="0.0e+00" nType="0"><Node pos="l" depth="2" NCoef="0" IVar="-1" Cut="0.0e+00" cType="1" res="0.0418363251" rms="0.0e+00" purity="0.0e+00" nType="-99" /><Node pos="r" depth="2" NCoef="0" IVar="-1" Cut="0.0e+00" cType="1" res="0.0672776401" rms="0.0e+00" purity="0.0e+00" nType="-99" /></Node></Node></BinaryTree><BinaryTree type="DecisionTree" boostWeight="1.0e+00" itree="34"><Node pos="s" depth="0" NCoef="0" IVar="13" Cut="0.731189966" cType="1" res="0.0e+00" rms="0.0e+00" purity="0.0e+00" nType="0"><Node pos="l" depth="1" NCoef="0" IVar="13" Cut="-0.336202234" cType="1" res="0.0e+00" rms="0.0e+00" purity="0.0e+00" nType="0"><Node pos="l" depth="2" NCoef="0" IVar="-1" Cut="0.0e+00" cType="1" res="-0.0108126672" rms="0.0e+00" purity="0.0e+00" nType="-99" /><Node pos="r" depth="2" NCoef="0" IVar="-1" Cut="0.0e+00" cType="1" res="0.00310094026" rms="0.0e+00" purity="0.0e+00" nType="-99" /></Node><Node pos="r" depth="1" NCoef="0" IVar="13" Cut="0.858282089" cType="1" res="0.0e+00" rms="0.0e+00" purity="0.0e+00" nType="0"><Node pos="l" depth="2" NCoef="0" IVar="-1" Cut="0.0e+00" cType="1" res="0.0286039189" rms="0.0e+00" purity="0.0e+00" nType="-99" /><Node pos="r" depth="2" NCoef="0" IVar="-1" Cut="0.0e+00" cType="1" res="0.0589789227" rms="0.0e+00" purity="0.0e+00" nType="-99" /></Node></Node></BinaryTree><BinaryTree type="DecisionTree" boostWeight="1.0e+00" itree="35"><Node pos="s" depth="0" NCoef="0" IVar="4" Cut="1.50052357" cType="1" res="0.0e+00" rms="0.0e+00" purity="0.0e+00" nType="0"><Node pos="l" depth="1" NCoef="0" IVar="4" Cut="0.918891311" cType="1" res="0.0e+00" rms="0.0e+00" purity="0.0e+00" nType="0"><Node pos="l" depth="2" NCoef="0" IVar="-1" Cut="0.0e+00" cType="1" res="-0.0092731528" rms="0.0e+00" purity="0.0e+00" nType="-99" /><Node pos="r" depth="2" NCoef="0" IVar="-1" Cut="0.0e+00" cType="1" res="0.00835478958" rms="0.0e+00" purity="0.0e+00" nType="-99" /></Node><Node pos="r" depth="1" NCoef="0" IVar="4" Cut="3.24439621" cType="1" res="0.0e+00" rms="0.0e+00" purity="0.0e+00" nType="0"><Node pos="l" depth="2" NCoef="0" IVar="-1" Cut="0.0e+00" cType="1" res="0.0281870514" rms="0.0e+00" purity="0.0e+00" nType="-99" /><Node pos="r" depth="2" NCoef="0" IVar="-1" Cut="0.0e+00" cType="1" res="0.063467674" rms="0.0e+00" purity="0.0e+00" nType="-99" /></Node></Node></BinaryTree><BinaryTree type="DecisionTree" boostWeight="1.0e+00" itree="36"><Node pos="s" depth="0" NCoef="0" IVar="6" Cut="-0.0471535474" cType="1" res="0.0e+00" rms="0.0e+00" purity="0.0e+00" nType="0"><Node pos="l" depth="1" NCoef="0" IVar="6" Cut="-0.786398888" cType="1" res="0.0e+00" rms="0.0e+00" purity="0.0e+00" nType="0"><Node pos="l" depth="2" NCoef="0" IVar="-1" Cut="0.0e+00" cType="1" res="-0.01335226" rms="0.0e+00" purity="0.0e+00" nType="-99" /><Node pos="r" depth="2" NCoef="0" IVar="-1" Cut="0.0e+00" cType="1" res="-0.00405354286" rms="0.0e+00" purity="0.0e+00" nType="-99" /></Node><Node pos="r" depth="1" NCoef="0" IVar="10" Cut="1742.02319" cType="1" res="0.0e+00" rms="0.0e+00" purity="0.0e+00" nType="0"><Node pos="l" depth="2" NCoef="0" IVar="-1" Cut="0.0e+00" cType="1" res="0.00533915497" rms="0.0e+00" purity="0.0e+00" nType="-99" /><Node pos="r" depth="2" NCoef="0" IVar="-1" Cut="0.0e+00" cType="1" res="0.0219275095" rms="0.0e+00" purity="0.0e+00" nType="-99" /></Node></Node></BinaryTree><BinaryTree type="DecisionTree" boostWeight="1.0e+00" itree="37"><Node pos="s" depth="0" NCoef="0" IVar="13" Cut="0.772013426" cType="1" res="0.0e+00" rms="0.0e+00" purity="0.0e+00" nType="0"><Node pos="l" depth="1" NCoef="0" IVar="7" Cut="1.38322043" cType="1" res="0.0e+00" rms="0.0e+00" purity="0.0e+00" nType="0"><Node pos="l" depth="2" NCoef="0" IVar="-1" Cut="0.0e+00" cType="1" res="0.00276371371" rms="0.0e+00" purity="0.0e+00" nType="-99" /><Node pos="r" depth="2" NCoef="0" IVar="-1" Cut="0.0e+00" cType="1" res="-0.0107910205" rms="0.0e+00" purity="0.0e+00" nType="-99" /></Node><Node pos="r" depth="1" NCoef="0" IVar="13" Cut="0.877539098" cType="1" res="0.0e+00" rms="0.0e+00" purity="0.0e+00" nType="0"><Node pos="l" depth="2" NCoef="0" IVar="-1" Cut="0.0e+00" cType="1" res="0.0303926803" rms="0.0e+00" purity="0.0e+00" nType="-99" /><Node pos="r" depth="2" NCoef="0" IVar="-1" Cut="0.0e+00" cType="1" res="0.0600504503" rms="0.0e+00" purity="0.0e+00" nType="-99" /></Node></Node></BinaryTree><BinaryTree type="DecisionTree" boostWeight="1.0e+00" itree="38"><Node pos="s" depth="0" NCoef="0" IVar="8" Cut="126.972099" cType="1" res="0.0e+00" rms="0.0e+00" purity="0.0e+00" nType="0"><Node pos="l" depth="1" NCoef="0" IVar="8" Cut="84.0772324" cType="1" res="0.0e+00" rms="0.0e+00" purity="0.0e+00" nType="0"><Node pos="l" depth="2" NCoef="0" IVar="-1" Cut="0.0e+00" cType="1" res="-0.00818429515" rms="0.0e+00" purity="0.0e+00" nType="-99" /><Node pos="r" depth="2" NCoef="0" IVar="-1" Cut="0.0e+00" cType="1" res="0.00178546377" rms="0.0e+00" purity="0.0e+00" nType="-99" /></Node><Node pos="r" depth="1" NCoef="0" IVar="8" Cut="254.988266" cType="1" res="0.0e+00" rms="0.0e+00" purity="0.0e+00" nType="0"><Node pos="l" depth="2" NCoef="0" IVar="-1" Cut="0.0e+00" cType="1" res="0.0120052891" rms="0.0e+00" purity="0.0e+00" nType="-99" /><Node pos="r" depth="2" NCoef="0" IVar="-1" Cut="0.0e+00" cType="1" res="0.036674045" rms="0.0e+00" purity="0.0e+00" nType="-99" /></Node></Node></BinaryTree><BinaryTree type="DecisionTree" boostWeight="1.0e+00" itree="39"><Node pos="s" depth="0" NCoef="0" IVar="5" Cut="0.75813961" cType="1" res="0.0e+00" rms="0.0e+00" purity="0.0e+00" nType="0"><Node pos="l" depth="1" NCoef="0" IVar="11" Cut="2.29814982" cType="1" res="0.0e+00" rms="0.0e+00" purity="0.0e+00" nType="0"><Node pos="l" depth="2" NCoef="0" IVar="-1" Cut="0.0e+00" cType="1" res="-0.0114706466" rms="0.0e+00" purity="0.0e+00" nType="-99" /><Node pos="r" depth="2" NCoef="0" IVar="-1" Cut="0.0e+00" cType="1" res="0.000942206534" rms="0.0e+00" purity="0.0e+00" nType="-99" /></Node><Node pos="r" depth="1" NCoef="0" IVar="5" Cut="1.69716263" cType="1" res="0.0e+00" rms="0.0e+00" purity="0.0e+00" nType="0"><Node pos="l" depth="2" NCoef="0" IVar="-1" Cut="0.0e+00" cType="1" res="0.0232887268" rms="0.0e+00" purity="0.0e+00" nType="-99" /><Node pos="r" depth="2" NCoef="0" IVar="-1" Cut="0.0e+00" cType="1" res="0.0558828041" rms="0.0e+00" purity="0.0e+00" nType="-99" /></Node></Node></BinaryTree><BinaryTree type="DecisionTree" boostWeight="1.0e+00" itree="40"><Node pos="s" depth="0" NCoef="0" IVar="13" Cut="0.747546136" cType="1" res="0.0e+00" rms="0.0e+00" purity="0.0e+00" nType="0"><Node pos="l" depth="1" NCoef="0" IVar="11" Cut="2.6359086" cType="1" res="0.0e+00" rms="0.0e+00" purity="0.0e+00" nType="0"><Node pos="l" depth="2" NCoef="0" IVar="-1" Cut="0.0e+00" cType="1" res="-0.00647948403" rms="0.0e+00" purity="0.0e+00" nType="-99" /><Node pos="r" depth="2" NCoef="0" IVar="-1" Cut="0.0e+00" cType="1" res="0.0045273453" rms="0.0e+00" purity="0.0e+00" nType="-99" /></Node><Node pos="r" depth="1" NCoef="0" IVar="13" Cut="0.877539098" cType="1" res="0.0e+00" rms="0.0e+00" purity="0.0e+00" nType="0"><Node pos="l" depth="2" NCoef="0" IVar="-1" Cut="0.0e+00" cType="1" res="0.0257769674" rms="0.0e+00" purity="0.0e+00" nType="-99" /><Node pos="r" depth="2" NCoef="0" IVar="-1" Cut="0.0e+00" cType="1" res="0.0575066321" rms="0.0e+00" purity="0.0e+00" nType="-99" /></Node></Node></BinaryTree><BinaryTree type="DecisionTree" boostWeight="1.0e+00" itree="41"><Node pos="s" depth="0" NCoef="0" IVar="5" Cut="0.619276702" cType="1" res="0.0e+00" rms="0.0e+00" purity="0.0e+00" nType="0"><Node pos="l" depth="1" NCoef="0" IVar="11" Cut="2.18753743" cType="1" res="0.0e+00" rms="0.0e+00" purity="0.0e+00" nType="0"><Node pos="l" depth="2" NCoef="0" IVar="-1" Cut="0.0e+00" cType="1" res="-0.0123815583" rms="0.0e+00" purity="0.0e+00" nType="-99" /><Node pos="r" depth="2" NCoef="0" IVar="-1" Cut="0.0e+00" cType="1" res="-0.000710269844" rms="0.0e+00" purity="0.0e+00" nType="-99" /></Node><Node pos="r" depth="1" NCoef="0" IVar="5" Cut="1.07360578" cType="1" res="0.0e+00" rms="0.0e+00" purity="0.0e+00" nType="0"><Node pos="l" depth="2" NCoef="0" IVar="-1" Cut="0.0e+00" cType="1" res="0.0136960177" rms="0.0e+00" purity="0.0e+00" nType="-99" /><Node pos="r" depth="2" NCoef="0" IVar="-1" Cut="0.0e+00" cType="1" res="0.0369631052" rms="0.0e+00" purity="0.0e+00" nType="-99" /></Node></Node></BinaryTree><BinaryTree type="DecisionTree" boostWeight="1.0e+00" itree="42"><Node pos="s" depth="0" NCoef="0" IVar="5" Cut="0.619276702" cType="1" res="0.0e+00" rms="0.0e+00" purity="0.0e+00" nType="0"><Node pos="l" depth="1" NCoef="0" IVar="13" Cut="0.681148648" cType="1" res="0.0e+00" rms="0.0e+00" purity="0.0e+00" nType="0"><Node pos="l" depth="2" NCoef="0" IVar="-1" Cut="0.0e+00" cType="1" res="-0.00303347339" rms="0.0e+00" purity="0.0e+00" nType="-99" /><Node pos="r" depth="2" NCoef="0" IVar="-1" Cut="0.0e+00" cType="1" res="0.0189156029" rms="0.0e+00" purity="0.0e+00" nType="-99" /></Node><Node pos="r" depth="1" NCoef="0" IVar="5" Cut="1.54824662" cType="1" res="0.0e+00" rms="0.0e+00" purity="0.0e+00" nType="0"><Node pos="l" depth="2" NCoef="0" IVar="-1" Cut="0.0e+00" cType="1" res="0.015004443" rms="0.0e+00" purity="0.0e+00" nType="-99" /><Node pos="r" depth="2" NCoef="0" IVar="-1" Cut="0.0e+00" cType="1" res="0.0481540784" rms="0.0e+00" purity="0.0e+00" nType="-99" /></Node></Node></BinaryTree><BinaryTree type="DecisionTree" boostWeight="1.0e+00" itree="43"><Node pos="s" depth="0" NCoef="0" IVar="5" Cut="0.75813961" cType="1" res="0.0e+00" rms="0.0e+00" purity="0.0e+00" nType="0"><Node pos="l" depth="1" NCoef="0" IVar="5" Cut="0.507742524" cType="1" res="0.0e+00" rms="0.0e+00" purity="0.0e+00" nType="0"><Node pos="l" depth="2" NCoef="0" IVar="-1" Cut="0.0e+00" cType="1" res="-0.00324254832" rms="0.0e+00" purity="0.0e+00" nType="-99" /><Node pos="r" depth="2" NCoef="0" IVar="-1" Cut="0.0e+00" cType="1" res="0.0060439459" rms="0.0e+00" purity="0.0e+00" nType="-99" /></Node><Node pos="r" depth="1" NCoef="0" IVar="5" Cut="1.69716263" cType="1" res="0.0e+00" rms="0.0e+00" purity="0.0e+00" nType="0"><Node pos="l" depth="2" NCoef="0" IVar="-1" Cut="0.0e+00" cType="1" res="0.0188254397" rms="0.0e+00" purity="0.0e+00" nType="-99" /><Node pos="r" depth="2" NCoef="0" IVar="-1" Cut="0.0e+00" cType="1" res="0.050520882" rms="0.0e+00" purity="0.0e+00" nType="-99" /></Node></Node></BinaryTree><BinaryTree type="DecisionTree" boostWeight="1.0e+00" itree="44"><Node pos="s" depth="0" NCoef="0" IVar="5" Cut="0.833224654" cType="1" res="0.0e+00" rms="0.0e+00" purity="0.0e+00" nType="0"><Node pos="l" depth="1" NCoef="0" IVar="16" Cut="2.02601933" cType="1" res="0.0e+00" rms="0.0e+00" purity="0.0e+00" nType="0"><Node pos="l" depth="2" NCoef="0" IVar="-1" Cut="0.0e+00" cType="1" res="-0.00500855036" rms="0.0e+00" purity="0.0e+00" nType="-99" /><Node pos="r" depth="2" NCoef="0" IVar="-1" Cut="0.0e+00" cType="1" res="0.00313528045" rms="0.0e+00" purity="0.0e+00" nType="-99" /></Node><Node pos="r" depth="1" NCoef="0" IVar="5" Cut="1.79240847" cType="1" res="0.0e+00" rms="0.0e+00" purity="0.0e+00" nType="0"><Node pos="l" depth="2" NCoef="0" IVar="-1" Cut="0.0e+00" cType="1" res="0.0201157294" rms="0.0e+00" purity="0.0e+00" nType="-99" /><Node pos="r" depth="2" NCoef="0" IVar="-1" Cut="0.0e+00" cType="1" res="0.0508383512" rms="0.0e+00" purity="0.0e+00" nType="-99" /></Node></Node></BinaryTree><BinaryTree type="DecisionTree" boostWeight="1.0e+00" itree="45"><Node pos="s" depth="0" NCoef="0" IVar="4" Cut="1.72895622" cType="1" res="0.0e+00" rms="0.0e+00" purity="0.0e+00" nType="0"><Node pos="l" depth="1" NCoef="0" IVar="4" Cut="0.701791704" cType="1" res="0.0e+00" rms="0.0e+00" purity="0.0e+00" nType="0"><Node pos="l" depth="2" NCoef="0" IVar="-1" Cut="0.0e+00" cType="1" res="-0.0117706014" rms="0.0e+00" purity="0.0e+00" nType="-99" /><Node pos="r" depth="2" NCoef="0" IVar="-1" Cut="0.0e+00" cType="1" res="0.00266402448" rms="0.0e+00" purity="0.0e+00" nType="-99" /></Node><Node pos="r" depth="1" NCoef="0" IVar="4" Cut="3.24439621" cType="1" res="0.0e+00" rms="0.0e+00" purity="0.0e+00" nType="0"><Node pos="l" depth="2" NCoef="0" IVar="-1" Cut="0.0e+00" cType="1" res="0.0245580319" rms="0.0e+00" purity="0.0e+00" nType="-99" /><Node pos="r" depth="2" NCoef="0" IVar="-1" Cut="0.0e+00" cType="1" res="0.0558292456" rms="0.0e+00" purity="0.0e+00" nType="-99" /></Node></Node></BinaryTree><BinaryTree type="DecisionTree" boostWeight="1.0e+00" itree="46"><Node pos="s" depth="0" NCoef="0" IVar="5" Cut="0.590124786" cType="1" res="0.0e+00" rms="0.0e+00" purity="0.0e+00" nType="0"><Node pos="l" depth="1" NCoef="0" IVar="13" Cut="0.576130211" cType="1" res="0.0e+00" rms="0.0e+00" purity="0.0e+00" nType="0"><Node pos="l" depth="2" NCoef="0" IVar="-1" Cut="0.0e+00" cType="1" res="-0.00298587396" rms="0.0e+00" purity="0.0e+00" nType="-99" /><Node pos="r" depth="2" NCoef="0" IVar="-1" Cut="0.0e+00" cType="1" res="0.0108408714" rms="0.0e+00" purity="0.0e+00" nType="-99" /></Node><Node pos="r" depth="1" NCoef="0" IVar="5" Cut="1.54824662" cType="1" res="0.0e+00" rms="0.0e+00" purity="0.0e+00" nType="0"><Node pos="l" depth="2" NCoef="0" IVar="-1" Cut="0.0e+00" cType="1" res="0.0113807572" rms="0.0e+00" purity="0.0e+00" nType="-99" /><Node pos="r" depth="2" NCoef="0" IVar="-1" Cut="0.0e+00" cType="1" res="0.0413649045" rms="0.0e+00" purity="0.0e+00" nType="-99" /></Node></Node></BinaryTree><BinaryTree type="DecisionTree" boostWeight="1.0e+00" itree="47"><Node pos="s" depth="0" NCoef="0" IVar="7" Cut="0.929523647" cType="1" res="0.0e+00" rms="0.0e+00" purity="0.0e+00" nType="0"><Node pos="l" depth="1" NCoef="0" IVar="1" Cut="1.02882087" cType="1" res="0.0e+00" rms="0.0e+00" purity="0.0e+00" nType="0"><Node pos="l" depth="2" NCoef="0" IVar="-1" Cut="0.0e+00" cType="1" res="0.00558213796" rms="0.0e+00" purity="0.0e+00" nType="-99" /><Node pos="r" depth="2" NCoef="0" IVar="-1" Cut="0.0e+00" cType="1" res="-0.00211825361" rms="0.0e+00" purity="0.0e+00" nType="-99" /></Node><Node pos="r" depth="1" NCoef="0" IVar="7" Cut="1.97313643" cType="1" res="0.0e+00" rms="0.0e+00" purity="0.0e+00" nType="0"><Node pos="l" depth="2" NCoef="0" IVar="-1" Cut="0.0e+00" cType="1" res="-0.0032758778" rms="0.0e+00" purity="0.0e+00" nType="-99" /><Node pos="r" depth="2" NCoef="0" IVar="-1" Cut="0.0e+00" cType="1" res="-0.0190696921" rms="0.0e+00" purity="0.0e+00" nType="-99" /></Node></Node></BinaryTree><BinaryTree type="DecisionTree" boostWeight="1.0e+00" itree="48"><Node pos="s" depth="0" NCoef="0" IVar="13" Cut="0.81386888" cType="1" res="0.0e+00" rms="0.0e+00" purity="0.0e+00" nType="0"><Node pos="l" depth="1" NCoef="0" IVar="14" Cut="2" cType="1" res="0.0e+00" rms="0.0e+00" purity="0.0e+00" nType="0"><Node pos="l" depth="2" NCoef="0" IVar="-1" Cut="0.0e+00" cType="1" res="0.0022038559" rms="0.0e+00" purity="0.0e+00" nType="-99" /><Node pos="r" depth="2" NCoef="0" IVar="-1" Cut="0.0e+00" cType="1" res="-0.00525777973" rms="0.0e+00" purity="0.0e+00" nType="-99" /></Node><Node pos="r" depth="1" NCoef="0" IVar="13" Cut="0.88797611" cType="1" res="0.0e+00" rms="0.0e+00" purity="0.0e+00" nType="0"><Node pos="l" depth="2" NCoef="0" IVar="-1" Cut="0.0e+00" cType="1" res="0.0271512605" rms="0.0e+00" purity="0.0e+00" nType="-99" /><Node pos="r" depth="2" NCoef="0" IVar="-1" Cut="0.0e+00" cType="1" res="0.0534041189" rms="0.0e+00" purity="0.0e+00" nType="-99" /></Node></Node></BinaryTree><BinaryTree type="DecisionTree" boostWeight="1.0e+00" itree="49"><Node pos="s" depth="0" NCoef="0" IVar="6" Cut="-0.138218105" cType="1" res="0.0e+00" rms="0.0e+00" purity="0.0e+00" nType="0"><Node pos="l" depth="1" NCoef="0" IVar="6" Cut="-0.786398888" cType="1" res="0.0e+00" rms="0.0e+00" purity="0.0e+00" nType="0"><Node pos="l" depth="2" NCoef="0" IVar="-1" Cut="0.0e+00" cType="1" res="-0.0108148782" rms="0.0e+00" purity="0.0e+00" nType="-99" /><Node pos="r" depth="2" NCoef="0" IVar="-1" Cut="0.0e+00" cType="1" res="-0.00289797387" rms="0.0e+00" purity="0.0e+00" nType="-99" /></Node><Node pos="r" depth="1" NCoef="0" IVar="13" Cut="0.822953463" cType="1" res="0.0e+00" rms="0.0e+00" purity="0.0e+00" nType="0"><Node pos="l" depth="2" NCoef="0" IVar="-1" Cut="0.0e+00" cType="1" res="0.00626048027" rms="0.0e+00" purity="0.0e+00" nType="-99" /><Node pos="r" depth="2" NCoef="0" IVar="-1" Cut="0.0e+00" cType="1" res="0.0342213735" rms="0.0e+00" purity="0.0e+00" nType="-99" /></Node></Node></BinaryTree><BinaryTree type="DecisionTree" boostWeight="1.0e+00" itree="50"><Node pos="s" depth="0" NCoef="0" IVar="4" Cut="0.996356964" cType="1" res="0.0e+00" rms="0.0e+00" purity="0.0e+00" nType="0"><Node pos="l" depth="1" NCoef="0" IVar="4" Cut="0.648915589" cType="1" res="0.0e+00" rms="0.0e+00" purity="0.0e+00" nType="0"><Node pos="l" depth="2" NCoef="0" IVar="-1" Cut="0.0e+00" cType="1" res="-0.0120940339" rms="0.0e+00" purity="0.0e+00" nType="-99" /><Node pos="r" depth="2" NCoef="0" IVar="-1" Cut="0.0e+00" cType="1" res="-0.00259571942" rms="0.0e+00" purity="0.0e+00" nType="-99" /></Node><Node pos="r" depth="1" NCoef="0" IVar="4" Cut="2.22068143" cType="1" res="0.0e+00" rms="0.0e+00" purity="0.0e+00" nType="0"><Node pos="l" depth="2" NCoef="0" IVar="-1" Cut="0.0e+00" cType="1" res="0.00879976898" rms="0.0e+00" purity="0.0e+00" nType="-99" /><Node pos="r" depth="2" NCoef="0" IVar="-1" Cut="0.0e+00" cType="1" res="0.0381160937" rms="0.0e+00" purity="0.0e+00" nType="-99" /></Node></Node></BinaryTree><BinaryTree type="DecisionTree" boostWeight="1.0e+00" itree="51"><Node pos="s" depth="0" NCoef="0" IVar="4" Cut="1.5497694" cType="1" res="0.0e+00" rms="0.0e+00" purity="0.0e+00" nType="0"><Node pos="l" depth="1" NCoef="0" IVar="4" Cut="0.689211905" cType="1" res="0.0e+00" rms="0.0e+00" purity="0.0e+00" nType="0"><Node pos="l" depth="2" NCoef="0" IVar="-1" Cut="0.0e+00" cType="1" res="-0.00995788071" rms="0.0e+00" purity="0.0e+00" nType="-99" /><Node pos="r" depth="2" NCoef="0" IVar="-1" Cut="0.0e+00" cType="1" res="0.00127632148" rms="0.0e+00" purity="0.0e+00" nType="-99" /></Node><Node pos="r" depth="1" NCoef="0" IVar="4" Cut="3.24439621" cType="1" res="0.0e+00" rms="0.0e+00" purity="0.0e+00" nType="0"><Node pos="l" depth="2" NCoef="0" IVar="-1" Cut="0.0e+00" cType="1" res="0.0177482776" rms="0.0e+00" purity="0.0e+00" nType="-99" /><Node pos="r" depth="2" NCoef="0" IVar="-1" Cut="0.0e+00" cType="1" res="0.0511135459" rms="0.0e+00" purity="0.0e+00" nType="-99" /></Node></Node></BinaryTree><BinaryTree type="DecisionTree" boostWeight="1.0e+00" itree="52"><Node pos="s" depth="0" NCoef="0" IVar="10" Cut="1354.9696" cType="1" res="0.0e+00" rms="0.0e+00" purity="0.0e+00" nType="0"><Node pos="l" depth="1" NCoef="0" IVar="13" Cut="0.161777914" cType="1" res="0.0e+00" rms="0.0e+00" purity="0.0e+00" nType="0"><Node pos="l" depth="2" NCoef="0" IVar="-1" Cut="0.0e+00" cType="1" res="-0.00416348642" rms="0.0e+00" purity="0.0e+00" nType="-99" /><Node pos="r" depth="2" NCoef="0" IVar="-1" Cut="0.0e+00" cType="1" res="-0.0131398989" rms="0.0e+00" purity="0.0e+00" nType="-99" /></Node><Node pos="r" depth="1" NCoef="0" IVar="10" Cut="2417.32373" cType="1" res="0.0e+00" rms="0.0e+00" purity="0.0e+00" nType="0"><Node pos="l" depth="2" NCoef="0" IVar="-1" Cut="0.0e+00" cType="1" res="0.00292918226" rms="0.0e+00" purity="0.0e+00" nType="-99" /><Node pos="r" depth="2" NCoef="0" IVar="-1" Cut="0.0e+00" cType="1" res="0.016088821" rms="0.0e+00" purity="0.0e+00" nType="-99" /></Node></Node></BinaryTree><BinaryTree type="DecisionTree" boostWeight="1.0e+00" itree="53"><Node pos="s" depth="0" NCoef="0" IVar="4" Cut="1.01420283" cType="1" res="0.0e+00" rms="0.0e+00" purity="0.0e+00" nType="0"><Node pos="l" depth="1" NCoef="0" IVar="4" Cut="0.604938865" cType="1" res="0.0e+00" rms="0.0e+00" purity="0.0e+00" nType="0"><Node pos="l" depth="2" NCoef="0" IVar="-1" Cut="0.0e+00" cType="1" res="-0.0119623113" rms="0.0e+00" purity="0.0e+00" nType="-99" /><Node pos="r" depth="2" NCoef="0" IVar="-1" Cut="0.0e+00" cType="1" res="-0.00274182553" rms="0.0e+00" purity="0.0e+00" nType="-99" /></Node><Node pos="r" depth="1" NCoef="0" IVar="4" Cut="2.22068143" cType="1" res="0.0e+00" rms="0.0e+00" purity="0.0e+00" nType="0"><Node pos="l" depth="2" NCoef="0" IVar="-1" Cut="0.0e+00" cType="1" res="0.00792053714" rms="0.0e+00" purity="0.0e+00" nType="-99" /><Node pos="r" depth="2" NCoef="0" IVar="-1" Cut="0.0e+00" cType="1" res="0.0345129445" rms="0.0e+00" purity="0.0e+00" nType="-99" /></Node></Node></BinaryTree><BinaryTree type="DecisionTree" boostWeight="1.0e+00" itree="54"><Node pos="s" depth="0" NCoef="0" IVar="15" Cut="218.219238" cType="1" res="0.0e+00" rms="0.0e+00" purity="0.0e+00" nType="0"><Node pos="l" depth="1" NCoef="0" IVar="15" Cut="29.4122543" cType="1" res="0.0e+00" rms="0.0e+00" purity="0.0e+00" nType="0"><Node pos="l" depth="2" NCoef="0" IVar="-1" Cut="0.0e+00" cType="1" res="0.00355448457" rms="0.0e+00" purity="0.0e+00" nType="-99" /><Node pos="r" depth="2" NCoef="0" IVar="-1" Cut="0.0e+00" cType="1" res="-0.00657899724" rms="0.0e+00" purity="0.0e+00" nType="-99" /></Node><Node pos="r" depth="1" NCoef="0" IVar="15" Cut="539.117493" cType="1" res="0.0e+00" rms="0.0e+00" purity="0.0e+00" nType="0"><Node pos="l" depth="2" NCoef="0" IVar="-1" Cut="0.0e+00" cType="1" res="0.0263945684" rms="0.0e+00" purity="0.0e+00" nType="-99" /><Node pos="r" depth="2" NCoef="0" IVar="-1" Cut="0.0e+00" cType="1" res="0.0502287447" rms="0.0e+00" purity="0.0e+00" nType="-99" /></Node></Node></BinaryTree><BinaryTree type="DecisionTree" boostWeight="1.0e+00" itree="55"><Node pos="s" depth="0" NCoef="0" IVar="4" Cut="0.996356964" cType="1" res="0.0e+00" rms="0.0e+00" purity="0.0e+00" nType="0"><Node pos="l" depth="1" NCoef="0" IVar="15" Cut="121.024887" cType="1" res="0.0e+00" rms="0.0e+00" purity="0.0e+00" nType="0"><Node pos="l" depth="2" NCoef="0" IVar="-1" Cut="0.0e+00" cType="1" res="-0.00556369405" rms="0.0e+00" purity="0.0e+00" nType="-99" /><Node pos="r" depth="2" NCoef="0" IVar="-1" Cut="0.0e+00" cType="1" res="0.0278982334" rms="0.0e+00" purity="0.0e+00" nType="-99" /></Node><Node pos="r" depth="1" NCoef="0" IVar="4" Cut="3.24439621" cType="1" res="0.0e+00" rms="0.0e+00" purity="0.0e+00" nType="0"><Node pos="l" depth="2" NCoef="0" IVar="-1" Cut="0.0e+00" cType="1" res="0.00873210467" rms="0.0e+00" purity="0.0e+00" nType="-99" /><Node pos="r" depth="2" NCoef="0" IVar="-1" Cut="0.0e+00" cType="1" res="0.0470330678" rms="0.0e+00" purity="0.0e+00" nType="-99" /></Node></Node></BinaryTree><BinaryTree type="DecisionTree" boostWeight="1.0e+00" itree="56"><Node pos="s" depth="0" NCoef="0" IVar="15" Cut="197.698471" cType="1" res="0.0e+00" rms="0.0e+00" purity="0.0e+00" nType="0"><Node pos="l" depth="1" NCoef="0" IVar="16" Cut="1.77071428" cType="1" res="0.0e+00" rms="0.0e+00" purity="0.0e+00" nType="0"><Node pos="l" depth="2" NCoef="0" IVar="-1" Cut="0.0e+00" cType="1" res="-0.00617085258" rms="0.0e+00" purity="0.0e+00" nType="-99" /><Node pos="r" depth="2" NCoef="0" IVar="-1" Cut="0.0e+00" cType="1" res="0.00399247278" rms="0.0e+00" purity="0.0e+00" nType="-99" /></Node><Node pos="r" depth="1" NCoef="0" IVar="15" Cut="539.117493" cType="1" res="0.0e+00" rms="0.0e+00" purity="0.0e+00" nType="0"><Node pos="l" depth="2" NCoef="0" IVar="-1" Cut="0.0e+00" cType="1" res="0.0222797189" rms="0.0e+00" purity="0.0e+00" nType="-99" /><Node pos="r" depth="2" NCoef="0" IVar="-1" Cut="0.0e+00" cType="1" res="0.047290381" rms="0.0e+00" purity="0.0e+00" nType="-99" /></Node></Node></BinaryTree><BinaryTree type="DecisionTree" boostWeight="1.0e+00" itree="57"><Node pos="s" depth="0" NCoef="0" IVar="4" Cut="1.72895622" cType="1" res="0.0e+00" rms="0.0e+00" purity="0.0e+00" nType="0"><Node pos="l" depth="1" NCoef="0" IVar="4" Cut="0.648915589" cType="1" res="0.0e+00" rms="0.0e+00" purity="0.0e+00" nType="0"><Node pos="l" depth="2" NCoef="0" IVar="-1" Cut="0.0e+00" cType="1" res="-0.00945324264" rms="0.0e+00" purity="0.0e+00" nType="-99" /><Node pos="r" depth="2" NCoef="0" IVar="-1" Cut="0.0e+00" cType="1" res="0.00103193929" rms="0.0e+00" purity="0.0e+00" nType="-99" /></Node><Node pos="r" depth="1" NCoef="0" IVar="4" Cut="3.4774363" cType="1" res="0.0e+00" rms="0.0e+00" purity="0.0e+00" nType="0"><Node pos="l" depth="2" NCoef="0" IVar="-1" Cut="0.0e+00" cType="1" res="0.0168785956" rms="0.0e+00" purity="0.0e+00" nType="-99" /><Node pos="r" depth="2" NCoef="0" IVar="-1" Cut="0.0e+00" cType="1" res="0.0471064262" rms="0.0e+00" purity="0.0e+00" nType="-99" /></Node></Node></BinaryTree><BinaryTree type="DecisionTree" boostWeight="1.0e+00" itree="58"><Node pos="s" depth="0" NCoef="0" IVar="5" Cut="0.540051937" cType="1" res="0.0e+00" rms="0.0e+00" purity="0.0e+00" nType="0"><Node pos="l" depth="1" NCoef="0" IVar="5" Cut="0.260278493" cType="1" res="0.0e+00" rms="0.0e+00" purity="0.0e+00" nType="0"><Node pos="l" depth="2" NCoef="0" IVar="-1" Cut="0.0e+00" cType="1" res="0.00482838228" rms="0.0e+00" purity="0.0e+00" nType="-99" /><Node pos="r" depth="2" NCoef="0" IVar="-1" Cut="0.0e+00" cType="1" res="-0.00306181796" rms="0.0e+00" purity="0.0e+00" nType="-99" /></Node><Node pos="r" depth="1" NCoef="0" IVar="5" Cut="1.79240847" cType="1" res="0.0e+00" rms="0.0e+00" purity="0.0e+00" nType="0"><Node pos="l" depth="2" NCoef="0" IVar="-1" Cut="0.0e+00" cType="1" res="0.00650138548" rms="0.0e+00" purity="0.0e+00" nType="-99" /><Node pos="r" depth="2" NCoef="0" IVar="-1" Cut="0.0e+00" cType="1" res="0.035720706" rms="0.0e+00" purity="0.0e+00" nType="-99" /></Node></Node></BinaryTree><BinaryTree type="DecisionTree" boostWeight="1.0e+00" itree="59"><Node pos="s" depth="0" NCoef="0" IVar="5" Cut="0.507742524" cType="1" res="0.0e+00" rms="0.0e+00" purity="0.0e+00" nType="0"><Node pos="l" depth="1" NCoef="0" IVar="5" Cut="0.260278493" cType="1" res="0.0e+00" rms="0.0e+00" purity="0.0e+00" nType="0"><Node pos="l" depth="2" NCoef="0" IVar="-1" Cut="0.0e+00" cType="1" res="0.00440370711" rms="0.0e+00" purity="0.0e+00" nType="-99" /><Node pos="r" depth="2" NCoef="0" IVar="-1" Cut="0.0e+00" cType="1" res="-0.00324408221" rms="0.0e+00" purity="0.0e+00" nType="-99" /></Node><Node pos="r" depth="1" NCoef="0" IVar="5" Cut="1.79240847" cType="1" res="0.0e+00" rms="0.0e+00" purity="0.0e+00" nType="0"><Node pos="l" depth="2" NCoef="0" IVar="-1" Cut="0.0e+00" cType="1" res="0.00550897559" rms="0.0e+00" purity="0.0e+00" nType="-99" /><Node pos="r" depth="2" NCoef="0" IVar="-1" Cut="0.0e+00" cType="1" res="0.0343184806" rms="0.0e+00" purity="0.0e+00" nType="-99" /></Node></Node></BinaryTree><BinaryTree type="DecisionTree" boostWeight="1.0e+00" itree="60"><Node pos="s" depth="0" NCoef="0" IVar="5" Cut="0.916279376" cType="1" res="0.0e+00" rms="0.0e+00" purity="0.0e+00" nType="0"><Node pos="l" depth="1" NCoef="0" IVar="14" Cut="1" cType="1" res="0.0e+00" rms="0.0e+00" purity="0.0e+00" nType="0"><Node pos="l" depth="2" NCoef="0" IVar="-1" Cut="0.0e+00" cType="1" res="0.00293293316" rms="0.0e+00" purity="0.0e+00" nType="-99" /><Node pos="r" depth="2" NCoef="0" IVar="-1" Cut="0.0e+00" cType="1" res="-0.00328386389" rms="0.0e+00" purity="0.0e+00" nType="-99" /></Node><Node pos="r" depth="1" NCoef="0" IVar="5" Cut="2.44280386" cType="1" res="0.0e+00" rms="0.0e+00" purity="0.0e+00" nType="0"><Node pos="l" depth="2" NCoef="0" IVar="-1" Cut="0.0e+00" cType="1" res="0.0127190799" rms="0.0e+00" purity="0.0e+00" nType="-99" /><Node pos="r" depth="2" NCoef="0" IVar="-1" Cut="0.0e+00" cType="1" res="0.0487363227" rms="0.0e+00" purity="0.0e+00" nType="-99" /></Node></Node></BinaryTree><BinaryTree type="DecisionTree" boostWeight="1.0e+00" itree="61"><Node pos="s" depth="0" NCoef="0" IVar="10" Cut="1342.57153" cType="1" res="0.0e+00" rms="0.0e+00" purity="0.0e+00" nType="0"><Node pos="l" depth="1" NCoef="0" IVar="13" Cut="0.161777914" cType="1" res="0.0e+00" rms="0.0e+00" purity="0.0e+00" nType="0"><Node pos="l" depth="2" NCoef="0" IVar="-1" Cut="0.0e+00" cType="1" res="-0.00399087742" rms="0.0e+00" purity="0.0e+00" nType="-99" /><Node pos="r" depth="2" NCoef="0" IVar="-1" Cut="0.0e+00" cType="1" res="-0.0119850785" rms="0.0e+00" purity="0.0e+00" nType="-99" /></Node><Node pos="r" depth="1" NCoef="0" IVar="10" Cut="2417.32373" cType="1" res="0.0e+00" rms="0.0e+00" purity="0.0e+00" nType="0"><Node pos="l" depth="2" NCoef="0" IVar="-1" Cut="0.0e+00" cType="1" res="0.00244627753" rms="0.0e+00" purity="0.0e+00" nType="-99" /><Node pos="r" depth="2" NCoef="0" IVar="-1" Cut="0.0e+00" cType="1" res="0.0131278662" rms="0.0e+00" purity="0.0e+00" nType="-99" /></Node></Node></BinaryTree><BinaryTree type="DecisionTree" boostWeight="1.0e+00" itree="62"><Node pos="s" depth="0" NCoef="0" IVar="10" Cut="1742.02319" cType="1" res="0.0e+00" rms="0.0e+00" purity="0.0e+00" nType="0"><Node pos="l" depth="1" NCoef="0" IVar="10" Cut="982.838562" cType="1" res="0.0e+00" rms="0.0e+00" purity="0.0e+00" nType="0"><Node pos="l" depth="2" NCoef="0" IVar="-1" Cut="0.0e+00" cType="1" res="-0.00955365505" rms="0.0e+00" purity="0.0e+00" nType="-99" /><Node pos="r" depth="2" NCoef="0" IVar="-1" Cut="0.0e+00" cType="1" res="-0.00122263853" rms="0.0e+00" purity="0.0e+00" nType="-99" /></Node><Node pos="r" depth="1" NCoef="0" IVar="5" Cut="1.07360578" cType="1" res="0.0e+00" rms="0.0e+00" purity="0.0e+00" nType="0"><Node pos="l" depth="2" NCoef="0" IVar="-1" Cut="0.0e+00" cType="1" res="0.005224213" rms="0.0e+00" purity="0.0e+00" nType="-99" /><Node pos="r" depth="2" NCoef="0" IVar="-1" Cut="0.0e+00" cType="1" res="0.0213945583" rms="0.0e+00" purity="0.0e+00" nType="-99" /></Node></Node></BinaryTree><BinaryTree type="DecisionTree" boostWeight="1.0e+00" itree="63"><Node pos="s" depth="0" NCoef="0" IVar="16" Cut="1.8017205" cType="1" res="0.0e+00" rms="0.0e+00" purity="0.0e+00" nType="0"><Node pos="l" depth="1" NCoef="0" IVar="9" Cut="1.33008802" cType="1" res="0.0e+00" rms="0.0e+00" purity="0.0e+00" nType="0"><Node pos="l" depth="2" NCoef="0" IVar="-1" Cut="0.0e+00" cType="1" res="-0.00553531712" rms="0.0e+00" purity="0.0e+00" nType="-99" /><Node pos="r" depth="2" NCoef="0" IVar="-1" Cut="0.0e+00" cType="1" res="0.000821632682" rms="0.0e+00" purity="0.0e+00" nType="-99" /></Node><Node pos="r" depth="1" NCoef="0" IVar="0" Cut="-1.87897789" cType="1" res="0.0e+00" rms="0.0e+00" purity="0.0e+00" nType="0"><Node pos="l" depth="2" NCoef="0" IVar="-1" Cut="0.0e+00" cType="1" res="-0.00698667206" rms="0.0e+00" purity="0.0e+00" nType="-99" /><Node pos="r" depth="2" NCoef="0" IVar="-1" Cut="0.0e+00" cType="1" res="0.00469403854" rms="0.0e+00" purity="0.0e+00" nType="-99" /></Node></Node></BinaryTree><BinaryTree type="DecisionTree" boostWeight="1.0e+00" itree="64"><Node pos="s" depth="0" NCoef="0" IVar="5" Cut="0.510346353" cType="1" res="0.0e+00" rms="0.0e+00" purity="0.0e+00" nType="0"><Node pos="l" depth="1" NCoef="0" IVar="5" Cut="0.236064419" cType="1" res="0.0e+00" rms="0.0e+00" purity="0.0e+00" nType="0"><Node pos="l" depth="2" NCoef="0" IVar="-1" Cut="0.0e+00" cType="1" res="0.00683546113" rms="0.0e+00" purity="0.0e+00" nType="-99" /><Node pos="r" depth="2" NCoef="0" IVar="-1" Cut="0.0e+00" cType="1" res="-0.00269198301" rms="0.0e+00" purity="0.0e+00" nType="-99" /></Node><Node pos="r" depth="1" NCoef="0" IVar="5" Cut="2.04548359" cType="1" res="0.0e+00" rms="0.0e+00" purity="0.0e+00" nType="0"><Node pos="l" depth="2" NCoef="0" IVar="-1" Cut="0.0e+00" cType="1" res="0.00501580629" rms="0.0e+00" purity="0.0e+00" nType="-99" /><Node pos="r" depth="2" NCoef="0" IVar="-1" Cut="0.0e+00" cType="1" res="0.0358356275" rms="0.0e+00" purity="0.0e+00" nType="-99" /></Node></Node></BinaryTree><BinaryTree type="DecisionTree" boostWeight="1.0e+00" itree="65"><Node pos="s" depth="0" NCoef="0" IVar="15" Cut="193.387085" cType="1" res="0.0e+00" rms="0.0e+00" purity="0.0e+00" nType="0"><Node pos="l" depth="1" NCoef="0" IVar="16" Cut="1.77071428" cType="1" res="0.0e+00" rms="0.0e+00" purity="0.0e+00" nType="0"><Node pos="l" depth="2" NCoef="0" IVar="-1" Cut="0.0e+00" cType="1" res="-0.00556722749" rms="0.0e+00" purity="0.0e+00" nType="-99" /><Node pos="r" depth="2" NCoef="0" IVar="-1" Cut="0.0e+00" cType="1" res="0.00343583408" rms="0.0e+00" purity="0.0e+00" nType="-99" /></Node><Node pos="r" depth="1" NCoef="0" IVar="15" Cut="639.276306" cType="1" res="0.0e+00" rms="0.0e+00" purity="0.0e+00" nType="0"><Node pos="l" depth="2" NCoef="0" IVar="-1" Cut="0.0e+00" cType="1" res="0.0186902769" rms="0.0e+00" purity="0.0e+00" nType="-99" /><Node pos="r" depth="2" NCoef="0" IVar="-1" Cut="0.0e+00" cType="1" res="0.0455624722" rms="0.0e+00" purity="0.0e+00" nType="-99" /></Node></Node></BinaryTree><BinaryTree type="DecisionTree" boostWeight="1.0e+00" itree="66"><Node pos="s" depth="0" NCoef="0" IVar="4" Cut="0.996356964" cType="1" res="0.0e+00" rms="0.0e+00" purity="0.0e+00" nType="0"><Node pos="l" depth="1" NCoef="0" IVar="4" Cut="0.604938865" cType="1" res="0.0e+00" rms="0.0e+00" purity="0.0e+00" nType="0"><Node pos="l" depth="2" NCoef="0" IVar="-1" Cut="0.0e+00" cType="1" res="-0.00952446554" rms="0.0e+00" purity="0.0e+00" nType="-99" /><Node pos="r" depth="2" NCoef="0" IVar="-1" Cut="0.0e+00" cType="1" res="-0.00207292475" rms="0.0e+00" purity="0.0e+00" nType="-99" /></Node><Node pos="r" depth="1" NCoef="0" IVar="4" Cut="3.24439621" cType="1" res="0.0e+00" rms="0.0e+00" purity="0.0e+00" nType="0"><Node pos="l" depth="2" NCoef="0" IVar="-1" Cut="0.0e+00" cType="1" res="0.00697590876" rms="0.0e+00" purity="0.0e+00" nType="-99" /><Node pos="r" depth="2" NCoef="0" IVar="-1" Cut="0.0e+00" cType="1" res="0.0398816504" rms="0.0e+00" purity="0.0e+00" nType="-99" /></Node></Node></BinaryTree><BinaryTree type="DecisionTree" boostWeight="1.0e+00" itree="67"><Node pos="s" depth="0" NCoef="0" IVar="4" Cut="0.996356964" cType="1" res="0.0e+00" rms="0.0e+00" purity="0.0e+00" nType="0"><Node pos="l" depth="1" NCoef="0" IVar="16" Cut="1.95986879" cType="1" res="0.0e+00" rms="0.0e+00" purity="0.0e+00" nType="0"><Node pos="l" depth="2" NCoef="0" IVar="-1" Cut="0.0e+00" cType="1" res="-0.00802742317" rms="0.0e+00" purity="0.0e+00" nType="-99" /><Node pos="r" depth="2" NCoef="0" IVar="-1" Cut="0.0e+00" cType="1" res="-0.000743207987" rms="0.0e+00" purity="0.0e+00" nType="-99" /></Node><Node pos="r" depth="1" NCoef="0" IVar="4" Cut="2.68414664" cType="1" res="0.0e+00" rms="0.0e+00" purity="0.0e+00" nType="0"><Node pos="l" depth="2" NCoef="0" IVar="-1" Cut="0.0e+00" cType="1" res="0.00602045003" rms="0.0e+00" purity="0.0e+00" nType="-99" /><Node pos="r" depth="2" NCoef="0" IVar="-1" Cut="0.0e+00" cType="1" res="0.0307509098" rms="0.0e+00" purity="0.0e+00" nType="-99" /></Node></Node></BinaryTree><BinaryTree type="DecisionTree" boostWeight="1.0e+00" itree="68"><Node pos="s" depth="0" NCoef="0" IVar="6" Cut="-0.693027556" cType="1" res="0.0e+00" rms="0.0e+00" purity="0.0e+00" nType="0"><Node pos="l" depth="1" NCoef="0" IVar="0" Cut="0.936060488" cType="1" res="0.0e+00" rms="0.0e+00" purity="0.0e+00" nType="0"><Node pos="l" depth="2" NCoef="0" IVar="-1" Cut="0.0e+00" cType="1" res="-0.00518545974" rms="0.0e+00" purity="0.0e+00" nType="-99" /><Node pos="r" depth="2" NCoef="0" IVar="-1" Cut="0.0e+00" cType="1" res="-0.0114894351" rms="0.0e+00" purity="0.0e+00" nType="-99" /></Node><Node pos="r" depth="1" NCoef="0" IVar="6" Cut="0.920049906" cType="1" res="0.0e+00" rms="0.0e+00" purity="0.0e+00" nType="0"><Node pos="l" depth="2" NCoef="0" IVar="-1" Cut="0.0e+00" cType="1" res="0.00159741391" rms="0.0e+00" purity="0.0e+00" nType="-99" /><Node pos="r" depth="2" NCoef="0" IVar="-1" Cut="0.0e+00" cType="1" res="0.00954276696" rms="0.0e+00" purity="0.0e+00" nType="-99" /></Node></Node></BinaryTree><BinaryTree type="DecisionTree" boostWeight="1.0e+00" itree="69"><Node pos="s" depth="0" NCoef="0" IVar="4" Cut="2.00119996" cType="1" res="0.0e+00" rms="0.0e+00" purity="0.0e+00" nType="0"><Node pos="l" depth="1" NCoef="0" IVar="4" Cut="0.728159964" cType="1" res="0.0e+00" rms="0.0e+00" purity="0.0e+00" nType="0"><Node pos="l" depth="2" NCoef="0" IVar="-1" Cut="0.0e+00" cType="1" res="-0.00605553063" rms="0.0e+00" purity="0.0e+00" nType="-99" /><Node pos="r" depth="2" NCoef="0" IVar="-1" Cut="0.0e+00" cType="1" res="0.00186314411" rms="0.0e+00" purity="0.0e+00" nType="-99" /></Node><Node pos="r" depth="1" NCoef="0" IVar="4" Cut="3.4774363" cType="1" res="0.0e+00" rms="0.0e+00" purity="0.0e+00" nType="0"><Node pos="l" depth="2" NCoef="0" IVar="-1" Cut="0.0e+00" cType="1" res="0.0151240146" rms="0.0e+00" purity="0.0e+00" nType="-99" /><Node pos="r" depth="2" NCoef="0" IVar="-1" Cut="0.0e+00" cType="1" res="0.0395108759" rms="0.0e+00" purity="0.0e+00" nType="-99" /></Node></Node></BinaryTree><BinaryTree type="DecisionTree" boostWeight="1.0e+00" itree="70"><Node pos="s" depth="0" NCoef="0" IVar="4" Cut="1.38236725" cType="1" res="0.0e+00" rms="0.0e+00" purity="0.0e+00" nType="0"><Node pos="l" depth="1" NCoef="0" IVar="4" Cut="0.651760221" cType="1" res="0.0e+00" rms="0.0e+00" purity="0.0e+00" nType="0"><Node pos="l" depth="2" NCoef="0" IVar="-1" Cut="0.0e+00" cType="1" res="-0.00697555346" rms="0.0e+00" purity="0.0e+00" nType="-99" /><Node pos="r" depth="2" NCoef="0" IVar="-1" Cut="0.0e+00" cType="1" res="0.000125469945" rms="0.0e+00" purity="0.0e+00" nType="-99" /></Node><Node pos="r" depth="1" NCoef="0" IVar="4" Cut="3.4774363" cType="1" res="0.0e+00" rms="0.0e+00" purity="0.0e+00" nType="0"><Node pos="l" depth="2" NCoef="0" IVar="-1" Cut="0.0e+00" cType="1" res="0.00926606543" rms="0.0e+00" purity="0.0e+00" nType="-99" /><Node pos="r" depth="2" NCoef="0" IVar="-1" Cut="0.0e+00" cType="1" res="0.0378758162" rms="0.0e+00" purity="0.0e+00" nType="-99" /></Node></Node></BinaryTree><BinaryTree type="DecisionTree" boostWeight="1.0e+00" itree="71"><Node pos="s" depth="0" NCoef="0" IVar="8" Cut="87.215683" cType="1" res="0.0e+00" rms="0.0e+00" purity="0.0e+00" nType="0"><Node pos="l" depth="1" NCoef="0" IVar="5" Cut="0.236064419" cType="1" res="0.0e+00" rms="0.0e+00" purity="0.0e+00" nType="0"><Node pos="l" depth="2" NCoef="0" IVar="-1" Cut="0.0e+00" cType="1" res="0.00373709202" rms="0.0e+00" purity="0.0e+00" nType="-99" /><Node pos="r" depth="2" NCoef="0" IVar="-1" Cut="0.0e+00" cType="1" res="-0.00621925434" rms="0.0e+00" purity="0.0e+00" nType="-99" /></Node><Node pos="r" depth="1" NCoef="0" IVar="8" Cut="413.000488" cType="1" res="0.0e+00" rms="0.0e+00" purity="0.0e+00" nType="0"><Node pos="l" depth="2" NCoef="0" IVar="-1" Cut="0.0e+00" cType="1" res="0.00500110351" rms="0.0e+00" purity="0.0e+00" nType="-99" /><Node pos="r" depth="2" NCoef="0" IVar="-1" Cut="0.0e+00" cType="1" res="0.0303369276" rms="0.0e+00" purity="0.0e+00" nType="-99" /></Node></Node></BinaryTree><BinaryTree type="DecisionTree" boostWeight="1.0e+00" itree="72"><Node pos="s" depth="0" NCoef="0" IVar="15" Cut="141.953796" cType="1" res="0.0e+00" rms="0.0e+00" purity="0.0e+00" nType="0"><Node pos="l" depth="1" NCoef="0" IVar="15" Cut="29.6523132" cType="1" res="0.0e+00" rms="0.0e+00" purity="0.0e+00" nType="0"><Node pos="l" depth="2" NCoef="0" IVar="-1" Cut="0.0e+00" cType="1" res="0.00286867237" rms="0.0e+00" purity="0.0e+00" nType="-99" /><Node pos="r" depth="2" NCoef="0" IVar="-1" Cut="0.0e+00" cType="1" res="-0.00651839888" rms="0.0e+00" purity="0.0e+00" nType="-99" /></Node><Node pos="r" depth="1" NCoef="0" IVar="15" Cut="639.276306" cType="1" res="0.0e+00" rms="0.0e+00" purity="0.0e+00" nType="0"><Node pos="l" depth="2" NCoef="0" IVar="-1" Cut="0.0e+00" cType="1" res="0.0111619588" rms="0.0e+00" purity="0.0e+00" nType="-99" /><Node pos="r" depth="2" NCoef="0" IVar="-1" Cut="0.0e+00" cType="1" res="0.0382295288" rms="0.0e+00" purity="0.0e+00" nType="-99" /></Node></Node></BinaryTree><BinaryTree type="DecisionTree" boostWeight="1.0e+00" itree="73"><Node pos="s" depth="0" NCoef="0" IVar="10" Cut="1342.57153" cType="1" res="0.0e+00" rms="0.0e+00" purity="0.0e+00" nType="0"><Node pos="l" depth="1" NCoef="0" IVar="10" Cut="707.977783" cType="1" res="0.0e+00" rms="0.0e+00" purity="0.0e+00" nType="0"><Node pos="l" depth="2" NCoef="0" IVar="-1" Cut="0.0e+00" cType="1" res="-0.0141892452" rms="0.0e+00" purity="0.0e+00" nType="-99" /><Node pos="r" depth="2" NCoef="0" IVar="-1" Cut="0.0e+00" cType="1" res="-0.00416269619" rms="0.0e+00" purity="0.0e+00" nType="-99" /></Node><Node pos="r" depth="1" NCoef="0" IVar="14" Cut="2" cType="1" res="0.0e+00" rms="0.0e+00" purity="0.0e+00" nType="0"><Node pos="l" depth="2" NCoef="0" IVar="-1" Cut="0.0e+00" cType="1" res="0.00665174564" rms="0.0e+00" purity="0.0e+00" nType="-99" /><Node pos="r" depth="2" NCoef="0" IVar="-1" Cut="0.0e+00" cType="1" res="-0.00296452921" rms="0.0e+00" purity="0.0e+00" nType="-99" /></Node></Node></BinaryTree><BinaryTree type="DecisionTree" boostWeight="1.0e+00" itree="74"><Node pos="s" depth="0" NCoef="0" IVar="9" Cut="1.33008802" cType="1" res="0.0e+00" rms="0.0e+00" purity="0.0e+00" nType="0"><Node pos="l" depth="1" NCoef="0" IVar="13" Cut="-0.832111359" cType="1" res="0.0e+00" rms="0.0e+00" purity="0.0e+00" nType="0"><Node pos="l" depth="2" NCoef="0" IVar="-1" Cut="0.0e+00" cType="1" res="-0.0111234216" rms="0.0e+00" purity="0.0e+00" nType="-99" /><Node pos="r" depth="2" NCoef="0" IVar="-1" Cut="0.0e+00" cType="1" res="-0.000666427368" rms="0.0e+00" purity="0.0e+00" nType="-99" /></Node><Node pos="r" depth="1" NCoef="0" IVar="13" Cut="0.0401872359" cType="1" res="0.0e+00" rms="0.0e+00" purity="0.0e+00" nType="0"><Node pos="l" depth="2" NCoef="0" IVar="-1" Cut="0.0e+00" cType="1" res="0.00534103625" rms="0.0e+00" purity="0.0e+00" nType="-99" /><Node pos="r" depth="2" NCoef="0" IVar="-1" Cut="0.0e+00" cType="1" res="0.00104969356" rms="0.0e+00" purity="0.0e+00" nType="-99" /></Node></Node></BinaryTree><BinaryTree type="DecisionTree" boostWeight="1.0e+00" itree="75"><Node pos="s" depth="0" NCoef="0" IVar="8" Cut="87.215683" cType="1" res="0.0e+00" rms="0.0e+00" purity="0.0e+00" nType="0"><Node pos="l" depth="1" NCoef="0" IVar="10" Cut="1996.20874" cType="1" res="0.0e+00" rms="0.0e+00" purity="0.0e+00" nType="0"><Node pos="l" depth="2" NCoef="0" IVar="-1" Cut="0.0e+00" cType="1" res="-0.0078610573" rms="0.0e+00" purity="0.0e+00" nType="-99" /><Node pos="r" depth="2" NCoef="0" IVar="-1" Cut="0.0e+00" cType="1" res="0.00286945002" rms="0.0e+00" purity="0.0e+00" nType="-99" /></Node><Node pos="r" depth="1" NCoef="0" IVar="8" Cut="245.533691" cType="1" res="0.0e+00" rms="0.0e+00" purity="0.0e+00" nType="0"><Node pos="l" depth="2" NCoef="0" IVar="-1" Cut="0.0e+00" cType="1" res="0.00357379182" rms="0.0e+00" purity="0.0e+00" nType="-99" /><Node pos="r" depth="2" NCoef="0" IVar="-1" Cut="0.0e+00" cType="1" res="0.0164266583" rms="0.0e+00" purity="0.0e+00" nType="-99" /></Node></Node></BinaryTree><BinaryTree type="DecisionTree" boostWeight="1.0e+00" itree="76"><Node pos="s" depth="0" NCoef="0" IVar="6" Cut="-0.786398888" cType="1" res="0.0e+00" rms="0.0e+00" purity="0.0e+00" nType="0"><Node pos="l" depth="1" NCoef="0" IVar="0" Cut="2.22303534" cType="1" res="0.0e+00" rms="0.0e+00" purity="0.0e+00" nType="0"><Node pos="l" depth="2" NCoef="0" IVar="-1" Cut="0.0e+00" cType="1" res="-0.0057518878" rms="0.0e+00" purity="0.0e+00" nType="-99" /><Node pos="r" depth="2" NCoef="0" IVar="-1" Cut="0.0e+00" cType="1" res="-0.0209886935" rms="0.0e+00" purity="0.0e+00" nType="-99" /></Node><Node pos="r" depth="1" NCoef="0" IVar="0" Cut="-1.62433195" cType="1" res="0.0e+00" rms="0.0e+00" purity="0.0e+00" nType="0"><Node pos="l" depth="2" NCoef="0" IVar="-1" Cut="0.0e+00" cType="1" res="-0.00350708631" rms="0.0e+00" purity="0.0e+00" nType="-99" /><Node pos="r" depth="2" NCoef="0" IVar="-1" Cut="0.0e+00" cType="1" res="0.00230350299" rms="0.0e+00" purity="0.0e+00" nType="-99" /></Node></Node></BinaryTree><BinaryTree type="DecisionTree" boostWeight="1.0e+00" itree="77"><Node pos="s" depth="0" NCoef="0" IVar="5" Cut="0.507742524" cType="1" res="0.0e+00" rms="0.0e+00" purity="0.0e+00" nType="0"><Node pos="l" depth="1" NCoef="0" IVar="5" Cut="0.260278493" cType="1" res="0.0e+00" rms="0.0e+00" purity="0.0e+00" nType="0"><Node pos="l" depth="2" NCoef="0" IVar="-1" Cut="0.0e+00" cType="1" res="0.00368294795" rms="0.0e+00" purity="0.0e+00" nType="-99" /><Node pos="r" depth="2" NCoef="0" IVar="-1" Cut="0.0e+00" cType="1" res="-0.00212136842" rms="0.0e+00" purity="0.0e+00" nType="-99" /></Node><Node pos="r" depth="1" NCoef="0" IVar="13" Cut="0.131960914" cType="1" res="0.0e+00" rms="0.0e+00" purity="0.0e+00" nType="0"><Node pos="l" depth="2" NCoef="0" IVar="-1" Cut="0.0e+00" cType="1" res="0.0066877096" rms="0.0e+00" purity="0.0e+00" nType="-99" /><Node pos="r" depth="2" NCoef="0" IVar="-1" Cut="0.0e+00" cType="1" res="-0" rms="0.0e+00" purity="0.0e+00" nType="-99" /></Node></Node></BinaryTree><BinaryTree type="DecisionTree" boostWeight="1.0e+00" itree="78"><Node pos="s" depth="0" NCoef="0" IVar="10" Cut="1723.19141" cType="1" res="0.0e+00" rms="0.0e+00" purity="0.0e+00" nType="0"><Node pos="l" depth="1" NCoef="0" IVar="10" Cut="982.838562" cType="1" res="0.0e+00" rms="0.0e+00" purity="0.0e+00" nType="0"><Node pos="l" depth="2" NCoef="0" IVar="-1" Cut="0.0e+00" cType="1" res="-0.00831201114" rms="0.0e+00" purity="0.0e+00" nType="-99" /><Node pos="r" depth="2" NCoef="0" IVar="-1" Cut="0.0e+00" cType="1" res="-0.00119220617" rms="0.0e+00" purity="0.0e+00" nType="-99" /></Node><Node pos="r" depth="1" NCoef="0" IVar="14" Cut="2" cType="1" res="0.0e+00" rms="0.0e+00" purity="0.0e+00" nType="0"><Node pos="l" depth="2" NCoef="0" IVar="-1" Cut="0.0e+00" cType="1" res="0.00853346568" rms="0.0e+00" purity="0.0e+00" nType="-99" /><Node pos="r" depth="2" NCoef="0" IVar="-1" Cut="0.0e+00" cType="1" res="-0.000378229131" rms="0.0e+00" purity="0.0e+00" nType="-99" /></Node></Node></BinaryTree><BinaryTree type="DecisionTree" boostWeight="1.0e+00" itree="79"><Node pos="s" depth="0" NCoef="0" IVar="12" Cut="1.06609941" cType="1" res="0.0e+00" rms="0.0e+00" purity="0.0e+00" nType="0"><Node pos="l" depth="1" NCoef="0" IVar="5" Cut="0.258545518" cType="1" res="0.0e+00" rms="0.0e+00" purity="0.0e+00" nType="0"><Node pos="l" depth="2" NCoef="0" IVar="-1" Cut="0.0e+00" cType="1" res="0.00472980412" rms="0.0e+00" purity="0.0e+00" nType="-99" /><Node pos="r" depth="2" NCoef="0" IVar="-1" Cut="0.0e+00" cType="1" res="-0.00766109768" rms="0.0e+00" purity="0.0e+00" nType="-99" /></Node><Node pos="r" depth="1" NCoef="0" IVar="5" Cut="2.44280386" cType="1" res="0.0e+00" rms="0.0e+00" purity="0.0e+00" nType="0"><Node pos="l" depth="2" NCoef="0" IVar="-1" Cut="0.0e+00" cType="1" res="0.00100801222" rms="0.0e+00" purity="0.0e+00" nType="-99" /><Node pos="r" depth="2" NCoef="0" IVar="-1" Cut="0.0e+00" cType="1" res="0.0368023962" rms="0.0e+00" purity="0.0e+00" nType="-99" /></Node></Node></BinaryTree><BinaryTree type="DecisionTree" boostWeight="1.0e+00" itree="80"><Node pos="s" depth="0" NCoef="0" IVar="15" Cut="139.380264" cType="1" res="0.0e+00" rms="0.0e+00" purity="0.0e+00" nType="0"><Node pos="l" depth="1" NCoef="0" IVar="15" Cut="38.3132095" cType="1" res="0.0e+00" rms="0.0e+00" purity="0.0e+00" nType="0"><Node pos="l" depth="2" NCoef="0" IVar="-1" Cut="0.0e+00" cType="1" res="0.00193650345" rms="0.0e+00" purity="0.0e+00" nType="-99" /><Node pos="r" depth="2" NCoef="0" IVar="-1" Cut="0.0e+00" cType="1" res="-0.00705163134" rms="0.0e+00" purity="0.0e+00" nType="-99" /></Node><Node pos="r" depth="1" NCoef="0" IVar="15" Cut="539.117493" cType="1" res="0.0e+00" rms="0.0e+00" purity="0.0e+00" nType="0"><Node pos="l" depth="2" NCoef="0" IVar="-1" Cut="0.0e+00" cType="1" res="0.00974816829" rms="0.0e+00" purity="0.0e+00" nType="-99" /><Node pos="r" depth="2" NCoef="0" IVar="-1" Cut="0.0e+00" cType="1" res="0.031478554" rms="0.0e+00" purity="0.0e+00" nType="-99" /></Node></Node></BinaryTree><BinaryTree type="DecisionTree" boostWeight="1.0e+00" itree="81"><Node pos="s" depth="0" NCoef="0" IVar="8" Cut="113.245369" cType="1" res="0.0e+00" rms="0.0e+00" purity="0.0e+00" nType="0"><Node pos="l" depth="1" NCoef="0" IVar="8" Cut="66.487709" cType="1" res="0.0e+00" rms="0.0e+00" purity="0.0e+00" nType="0"><Node pos="l" depth="2" NCoef="0" IVar="-1" Cut="0.0e+00" cType="1" res="-0.00605263142" rms="0.0e+00" purity="0.0e+00" nType="-99" /><Node pos="r" depth="2" NCoef="0" IVar="-1" Cut="0.0e+00" cType="1" res="-0.00105347403" rms="0.0e+00" purity="0.0e+00" nType="-99" /></Node><Node pos="r" depth="1" NCoef="0" IVar="8" Cut="449.76889" cType="1" res="0.0e+00" rms="0.0e+00" purity="0.0e+00" nType="0"><Node pos="l" depth="2" NCoef="0" IVar="-1" Cut="0.0e+00" cType="1" res="0.00561734056" rms="0.0e+00" purity="0.0e+00" nType="-99" /><Node pos="r" depth="2" NCoef="0" IVar="-1" Cut="0.0e+00" cType="1" res="0.0297485739" rms="0.0e+00" purity="0.0e+00" nType="-99" /></Node></Node></BinaryTree><BinaryTree type="DecisionTree" boostWeight="1.0e+00" itree="82"><Node pos="s" depth="0" NCoef="0" IVar="4" Cut="2.22068143" cType="1" res="0.0e+00" rms="0.0e+00" purity="0.0e+00" nType="0"><Node pos="l" depth="1" NCoef="0" IVar="4" Cut="0.918891311" cType="1" res="0.0e+00" rms="0.0e+00" purity="0.0e+00" nType="0"><Node pos="l" depth="2" NCoef="0" IVar="-1" Cut="0.0e+00" cType="1" res="-0.00300793163" rms="0.0e+00" purity="0.0e+00" nType="-99" /><Node pos="r" depth="2" NCoef="0" IVar="-1" Cut="0.0e+00" cType="1" res="0.00294861337" rms="0.0e+00" purity="0.0e+00" nType="-99" /></Node><Node pos="r" depth="1" NCoef="0" IVar="4" Cut="4.85981894" cType="1" res="0.0e+00" rms="0.0e+00" purity="0.0e+00" nType="0"><Node pos="l" depth="2" NCoef="0" IVar="-1" Cut="0.0e+00" cType="1" res="0.0150810666" rms="0.0e+00" purity="0.0e+00" nType="-99" /><Node pos="r" depth="2" NCoef="0" IVar="-1" Cut="0.0e+00" cType="1" res="0.0465219207" rms="0.0e+00" purity="0.0e+00" nType="-99" /></Node></Node></BinaryTree><BinaryTree type="DecisionTree" boostWeight="1.0e+00" itree="83"><Node pos="s" depth="0" NCoef="0" IVar="15" Cut="218.219238" cType="1" res="0.0e+00" rms="0.0e+00" purity="0.0e+00" nType="0"><Node pos="l" depth="1" NCoef="0" IVar="15" Cut="29.4122543" cType="1" res="0.0e+00" rms="0.0e+00" purity="0.0e+00" nType="0"><Node pos="l" depth="2" NCoef="0" IVar="-1" Cut="0.0e+00" cType="1" res="0.00230867788" rms="0.0e+00" purity="0.0e+00" nType="-99" /><Node pos="r" depth="2" NCoef="0" IVar="-1" Cut="0.0e+00" cType="1" res="-0.00431009615" rms="0.0e+00" purity="0.0e+00" nType="-99" /></Node><Node pos="r" depth="1" NCoef="0" IVar="15" Cut="874.686401" cType="1" res="0.0e+00" rms="0.0e+00" purity="0.0e+00" nType="0"><Node pos="l" depth="2" NCoef="0" IVar="-1" Cut="0.0e+00" cType="1" res="0.0142432656" rms="0.0e+00" purity="0.0e+00" nType="-99" /><Node pos="r" depth="2" NCoef="0" IVar="-1" Cut="0.0e+00" cType="1" res="0.0481251925" rms="0.0e+00" purity="0.0e+00" nType="-99" /></Node></Node></BinaryTree><BinaryTree type="DecisionTree" boostWeight="1.0e+00" itree="84"><Node pos="s" depth="0" NCoef="0" IVar="8" Cut="87.215683" cType="1" res="0.0e+00" rms="0.0e+00" purity="0.0e+00" nType="0"><Node pos="l" depth="1" NCoef="0" IVar="4" Cut="1.02602899" cType="1" res="0.0e+00" rms="0.0e+00" purity="0.0e+00" nType="0"><Node pos="l" depth="2" NCoef="0" IVar="-1" Cut="0.0e+00" cType="1" res="-0.00553380512" rms="0.0e+00" purity="0.0e+00" nType="-99" /><Node pos="r" depth="2" NCoef="0" IVar="-1" Cut="0.0e+00" cType="1" res="0.00268613268" rms="0.0e+00" purity="0.0e+00" nType="-99" /></Node><Node pos="r" depth="1" NCoef="0" IVar="4" Cut="2.30633974" cType="1" res="0.0e+00" rms="0.0e+00" purity="0.0e+00" nType="0"><Node pos="l" depth="2" NCoef="0" IVar="-1" Cut="0.0e+00" cType="1" res="0.0031504801" rms="0.0e+00" purity="0.0e+00" nType="-99" /><Node pos="r" depth="2" NCoef="0" IVar="-1" Cut="0.0e+00" cType="1" res="0.0204728004" rms="0.0e+00" purity="0.0e+00" nType="-99" /></Node></Node></BinaryTree><BinaryTree type="DecisionTree" boostWeight="1.0e+00" itree="85"><Node pos="s" depth="0" NCoef="0" IVar="4" Cut="2.22068143" cType="1" res="0.0e+00" rms="0.0e+00" purity="0.0e+00" nType="0"><Node pos="l" depth="1" NCoef="0" IVar="4" Cut="0.566075623" cType="1" res="0.0e+00" rms="0.0e+00" purity="0.0e+00" nType="0"><Node pos="l" depth="2" NCoef="0" IVar="-1" Cut="0.0e+00" cType="1" res="-0.00741290953" rms="0.0e+00" purity="0.0e+00" nType="-99" /><Node pos="r" depth="2" NCoef="0" IVar="-1" Cut="0.0e+00" cType="1" res="0.000421963428" rms="0.0e+00" purity="0.0e+00" nType="-99" /></Node><Node pos="r" depth="1" NCoef="0" IVar="4" Cut="4.85981894" cType="1" res="0.0e+00" rms="0.0e+00" purity="0.0e+00" nType="0"><Node pos="l" depth="2" NCoef="0" IVar="-1" Cut="0.0e+00" cType="1" res="0.012762812" rms="0.0e+00" purity="0.0e+00" nType="-99" /><Node pos="r" depth="2" NCoef="0" IVar="-1" Cut="0.0e+00" cType="1" res="0.0437775552" rms="0.0e+00" purity="0.0e+00" nType="-99" /></Node></Node></BinaryTree><BinaryTree type="DecisionTree" boostWeight="1.0e+00" itree="86"><Node pos="s" depth="0" NCoef="0" IVar="9" Cut="1.33008802" cType="1" res="0.0e+00" rms="0.0e+00" purity="0.0e+00" nType="0"><Node pos="l" depth="1" NCoef="0" IVar="11" Cut="2.08757854" cType="1" res="0.0e+00" rms="0.0e+00" purity="0.0e+00" nType="0"><Node pos="l" depth="2" NCoef="0" IVar="-1" Cut="0.0e+00" cType="1" res="-0.00991395302" rms="0.0e+00" purity="0.0e+00" nType="-99" /><Node pos="r" depth="2" NCoef="0" IVar="-1" Cut="0.0e+00" cType="1" res="-0.000398968376" rms="0.0e+00" purity="0.0e+00" nType="-99" /></Node><Node pos="r" depth="1" NCoef="0" IVar="0" Cut="1.12775993" cType="1" res="0.0e+00" rms="0.0e+00" purity="0.0e+00" nType="0"><Node pos="l" depth="2" NCoef="0" IVar="-1" Cut="0.0e+00" cType="1" res="0.00408218522" rms="0.0e+00" purity="0.0e+00" nType="-99" /><Node pos="r" depth="2" NCoef="0" IVar="-1" Cut="0.0e+00" cType="1" res="-0.00171740726" rms="0.0e+00" purity="0.0e+00" nType="-99" /></Node></Node></BinaryTree><BinaryTree type="DecisionTree" boostWeight="1.0e+00" itree="87"><Node pos="s" depth="0" NCoef="0" IVar="8" Cut="113.245369" cType="1" res="0.0e+00" rms="0.0e+00" purity="0.0e+00" nType="0"><Node pos="l" depth="1" NCoef="0" IVar="13" Cut="0.452473342" cType="1" res="0.0e+00" rms="0.0e+00" purity="0.0e+00" nType="0"><Node pos="l" depth="2" NCoef="0" IVar="-1" Cut="0.0e+00" cType="1" res="-0.0041659358" rms="0.0e+00" purity="0.0e+00" nType="-99" /><Node pos="r" depth="2" NCoef="0" IVar="-1" Cut="0.0e+00" cType="1" res="0.00241118437" rms="0.0e+00" purity="0.0e+00" nType="-99" /></Node><Node pos="r" depth="1" NCoef="0" IVar="13" Cut="0.20015119" cType="1" res="0.0e+00" rms="0.0e+00" purity="0.0e+00" nType="0"><Node pos="l" depth="2" NCoef="0" IVar="-1" Cut="0.0e+00" cType="1" res="0.00692325877" rms="0.0e+00" purity="0.0e+00" nType="-99" /><Node pos="r" depth="2" NCoef="0" IVar="-1" Cut="0.0e+00" cType="1" res="-0.0047349548" rms="0.0e+00" purity="0.0e+00" nType="-99" /></Node></Node></BinaryTree><BinaryTree type="DecisionTree" boostWeight="1.0e+00" itree="88"><Node pos="s" depth="0" NCoef="0" IVar="16" Cut="1.77071428" cType="1" res="0.0e+00" rms="0.0e+00" purity="0.0e+00" nType="0"><Node pos="l" depth="1" NCoef="0" IVar="13" Cut="0.460764766" cType="1" res="0.0e+00" rms="0.0e+00" purity="0.0e+00" nType="0"><Node pos="l" depth="2" NCoef="0" IVar="-1" Cut="0.0e+00" cType="1" res="-0.00451446697" rms="0.0e+00" purity="0.0e+00" nType="-99" /><Node pos="r" depth="2" NCoef="0" IVar="-1" Cut="0.0e+00" cType="1" res="0.00115697936" rms="0.0e+00" purity="0.0e+00" nType="-99" /></Node><Node pos="r" depth="1" NCoef="0" IVar="13" Cut="0.460764766" cType="1" res="0.0e+00" rms="0.0e+00" purity="0.0e+00" nType="0"><Node pos="l" depth="2" NCoef="0" IVar="-1" Cut="0.0e+00" cType="1" res="0.0021021599" rms="0.0e+00" purity="0.0e+00" nType="-99" /><Node pos="r" depth="2" NCoef="0" IVar="-1" Cut="0.0e+00" cType="1" res="0.0220865142" rms="0.0e+00" purity="0.0e+00" nType="-99" /></Node></Node></BinaryTree><BinaryTree type="DecisionTree" boostWeight="1.0e+00" itree="89"><Node pos="s" depth="0" NCoef="0" IVar="5" Cut="0.236064419" cType="1" res="0.0e+00" rms="0.0e+00" purity="0.0e+00" nType="0"><Node pos="l" depth="1" NCoef="0" IVar="13" Cut="0.19524163" cType="1" res="0.0e+00" rms="0.0e+00" purity="0.0e+00" nType="0"><Node pos="l" depth="2" NCoef="0" IVar="-1" Cut="0.0e+00" cType="1" res="0.00713103311" rms="0.0e+00" purity="0.0e+00" nType="-99" /><Node pos="r" depth="2" NCoef="0" IVar="-1" Cut="0.0e+00" cType="1" res="0.00161158375" rms="0.0e+00" purity="0.0e+00" nType="-99" /></Node><Node pos="r" depth="1" NCoef="0" IVar="5" Cut="0.470664799" cType="1" res="0.0e+00" rms="0.0e+00" purity="0.0e+00" nType="0"><Node pos="l" depth="2" NCoef="0" IVar="-1" Cut="0.0e+00" cType="1" res="-0.00151682063" rms="0.0e+00" purity="0.0e+00" nType="-99" /><Node pos="r" depth="2" NCoef="0" IVar="-1" Cut="0.0e+00" cType="1" res="0.0016543403" rms="0.0e+00" purity="0.0e+00" nType="-99" /></Node></Node></BinaryTree><BinaryTree type="DecisionTree" boostWeight="1.0e+00" itree="90"><Node pos="s" depth="0" NCoef="0" IVar="1" Cut="1.02882087" cType="1" res="0.0e+00" rms="0.0e+00" purity="0.0e+00" nType="0"><Node pos="l" depth="1" NCoef="0" IVar="7" Cut="1.76674485" cType="1" res="0.0e+00" rms="0.0e+00" purity="0.0e+00" nType="0"><Node pos="l" depth="2" NCoef="0" IVar="-1" Cut="0.0e+00" cType="1" res="0.00156686234" rms="0.0e+00" purity="0.0e+00" nType="-99" /><Node pos="r" depth="2" NCoef="0" IVar="-1" Cut="0.0e+00" cType="1" res="-0.00865807198" rms="0.0e+00" purity="0.0e+00" nType="-99" /></Node><Node pos="r" depth="1" NCoef="0" IVar="2" Cut="1.44274712" cType="1" res="0.0e+00" rms="0.0e+00" purity="0.0e+00" nType="0"><Node pos="l" depth="2" NCoef="0" IVar="-1" Cut="0.0e+00" cType="1" res="-0.00272154715" rms="0.0e+00" purity="0.0e+00" nType="-99" /><Node pos="r" depth="2" NCoef="0" IVar="-1" Cut="0.0e+00" cType="1" res="-0.00641483814" rms="0.0e+00" purity="0.0e+00" nType="-99" /></Node></Node></BinaryTree><BinaryTree type="DecisionTree" boostWeight="1.0e+00" itree="91"><Node pos="s" depth="0" NCoef="0" IVar="7" Cut="1.97313643" cType="1" res="0.0e+00" rms="0.0e+00" purity="0.0e+00" nType="0"><Node pos="l" depth="1" NCoef="0" IVar="0" Cut="-1.62433195" cType="1" res="0.0e+00" rms="0.0e+00" purity="0.0e+00" nType="0"><Node pos="l" depth="2" NCoef="0" IVar="-1" Cut="0.0e+00" cType="1" res="-0.00428918051" rms="0.0e+00" purity="0.0e+00" nType="-99" /><Node pos="r" depth="2" NCoef="0" IVar="-1" Cut="0.0e+00" cType="1" res="0.000938597077" rms="0.0e+00" purity="0.0e+00" nType="-99" /></Node><Node pos="r" depth="1" NCoef="0" IVar="3" Cut="3.0193274" cType="1" res="0.0e+00" rms="0.0e+00" purity="0.0e+00" nType="0"><Node pos="l" depth="2" NCoef="0" IVar="-1" Cut="0.0e+00" cType="1" res="-0.00985761359" rms="0.0e+00" purity="0.0e+00" nType="-99" /><Node pos="r" depth="2" NCoef="0" IVar="-1" Cut="0.0e+00" cType="1" res="-0.0435830839" rms="0.0e+00" purity="0.0e+00" nType="-99" /></Node></Node></BinaryTree><BinaryTree type="DecisionTree" boostWeight="1.0e+00" itree="92"><Node pos="s" depth="0" NCoef="0" IVar="15" Cut="134.297607" cType="1" res="0.0e+00" rms="0.0e+00" purity="0.0e+00" nType="0"><Node pos="l" depth="1" NCoef="0" IVar="15" Cut="38.3132095" cType="1" res="0.0e+00" rms="0.0e+00" purity="0.0e+00" nType="0"><Node pos="l" depth="2" NCoef="0" IVar="-1" Cut="0.0e+00" cType="1" res="0.00160600594" rms="0.0e+00" purity="0.0e+00" nType="-99" /><Node pos="r" depth="2" NCoef="0" IVar="-1" Cut="0.0e+00" cType="1" res="-0.00588460406" rms="0.0e+00" purity="0.0e+00" nType="-99" /></Node><Node pos="r" depth="1" NCoef="0" IVar="7" Cut="1.15486848" cType="1" res="0.0e+00" rms="0.0e+00" purity="0.0e+00" nType="0"><Node pos="l" depth="2" NCoef="0" IVar="-1" Cut="0.0e+00" cType="1" res="0.00718137156" rms="0.0e+00" purity="0.0e+00" nType="-99" /><Node pos="r" depth="2" NCoef="0" IVar="-1" Cut="0.0e+00" cType="1" res="0.0267121326" rms="0.0e+00" purity="0.0e+00" nType="-99" /></Node></Node></BinaryTree><BinaryTree type="DecisionTree" boostWeight="1.0e+00" itree="93"><Node pos="s" depth="0" NCoef="0" IVar="12" Cut="1.06609941" cType="1" res="0.0e+00" rms="0.0e+00" purity="0.0e+00" nType="0"><Node pos="l" depth="1" NCoef="0" IVar="12" Cut="0.0980398655" cType="1" res="0.0e+00" rms="0.0e+00" purity="0.0e+00" nType="0"><Node pos="l" depth="2" NCoef="0" IVar="-1" Cut="0.0e+00" cType="1" res="-0.0111011714" rms="0.0e+00" purity="0.0e+00" nType="-99" /><Node pos="r" depth="2" NCoef="0" IVar="-1" Cut="0.0e+00" cType="1" res="-0.00269016065" rms="0.0e+00" purity="0.0e+00" nType="-99" /></Node><Node pos="r" depth="1" NCoef="0" IVar="11" Cut="2.08757854" cType="1" res="0.0e+00" rms="0.0e+00" purity="0.0e+00" nType="0"><Node pos="l" depth="2" NCoef="0" IVar="-1" Cut="0.0e+00" cType="1" res="-0.00467544561" rms="0.0e+00" purity="0.0e+00" nType="-99" /><Node pos="r" depth="2" NCoef="0" IVar="-1" Cut="0.0e+00" cType="1" res="0.00159501855" rms="0.0e+00" purity="0.0e+00" nType="-99" /></Node></Node></BinaryTree><BinaryTree type="DecisionTree" boostWeight="1.0e+00" itree="94"><Node pos="s" depth="0" NCoef="0" IVar="4" Cut="3.4774363" cType="1" res="0.0e+00" rms="0.0e+00" purity="0.0e+00" nType="0"><Node pos="l" depth="1" NCoef="0" IVar="4" Cut="0.963216603" cType="1" res="0.0e+00" rms="0.0e+00" purity="0.0e+00" nType="0"><Node pos="l" depth="2" NCoef="0" IVar="-1" Cut="0.0e+00" cType="1" res="-0.00205951417" rms="0.0e+00" purity="0.0e+00" nType="-99" /><Node pos="r" depth="2" NCoef="0" IVar="-1" Cut="0.0e+00" cType="1" res="0.00287442794" rms="0.0e+00" purity="0.0e+00" nType="-99" /></Node><Node pos="r" depth="1" NCoef="0" IVar="4" Cut="6.38516998" cType="1" res="0.0e+00" rms="0.0e+00" purity="0.0e+00" nType="0"><Node pos="l" depth="2" NCoef="0" IVar="-1" Cut="0.0e+00" cType="1" res="0.0242771711" rms="0.0e+00" purity="0.0e+00" nType="-99" /><Node pos="r" depth="2" NCoef="0" IVar="-1" Cut="0.0e+00" cType="1" res="0.0559494905" rms="0.0e+00" purity="0.0e+00" nType="-99" /></Node></Node></BinaryTree><BinaryTree type="DecisionTree" boostWeight="1.0e+00" itree="95"><Node pos="s" depth="0" NCoef="0" IVar="8" Cut="87.215683" cType="1" res="0.0e+00" rms="0.0e+00" purity="0.0e+00" nType="0"><Node pos="l" depth="1" NCoef="0" IVar="8" Cut="55.916584" cType="1" res="0.0e+00" rms="0.0e+00" purity="0.0e+00" nType="0"><Node pos="l" depth="2" NCoef="0" IVar="-1" Cut="0.0e+00" cType="1" res="-0.00624913676" rms="0.0e+00" purity="0.0e+00" nType="-99" /><Node pos="r" depth="2" NCoef="0" IVar="-1" Cut="0.0e+00" cType="1" res="-0.0024161539" rms="0.0e+00" purity="0.0e+00" nType="-99" /></Node><Node pos="r" depth="1" NCoef="0" IVar="8" Cut="413.000488" cType="1" res="0.0e+00" rms="0.0e+00" purity="0.0e+00" nType="0"><Node pos="l" depth="2" NCoef="0" IVar="-1" Cut="0.0e+00" cType="1" res="0.00278666592" rms="0.0e+00" purity="0.0e+00" nType="-99" /><Node pos="r" depth="2" NCoef="0" IVar="-1" Cut="0.0e+00" cType="1" res="0.0213979967" rms="0.0e+00" purity="0.0e+00" nType="-99" /></Node></Node></BinaryTree><BinaryTree type="DecisionTree" boostWeight="1.0e+00" itree="96"><Node pos="s" depth="0" NCoef="0" IVar="8" Cut="84.0772324" cType="1" res="0.0e+00" rms="0.0e+00" purity="0.0e+00" nType="0"><Node pos="l" depth="1" NCoef="0" IVar="15" Cut="125.325264" cType="1" res="0.0e+00" rms="0.0e+00" purity="0.0e+00" nType="0"><Node pos="l" depth="2" NCoef="0" IVar="-1" Cut="0.0e+00" cType="1" res="-0.00474403473" rms="0.0e+00" 